925 256
， 0.047566507 -0.08848314 -0.31396967 0.17350458 -0.13255271 0.29700178 0.031693663 0.36877558 0.07649028 0.041119706 -0.04589913 0.016005542 -0.23566188 0.21303728 0.21822383 -0.026959531 0.05275675 0.29573134 -0.16131413 0.18264543 0.045860033 0.36021844 -0.54400265 -0.03636699 -0.020645607 -0.20749292 0.13150275 -0.05501483 -0.08873226 -0.063960984 0.02982858 -0.06435426 0.09538029 0.057475045 0.1472439 -0.47012323 0.18830022 -0.040008973 -0.31687716 0.20278299 -0.044017848 0.19363485 0.15143932 -0.07149135 -0.19208479 0.046716496 -0.03141789 -0.14858975 -0.012218574 0.09881382 0.056800734 -0.28873107 -0.1167564 -0.21853259 -0.035341475 0.12814835 0.2657112 0.28105006 0.1181502 -0.1552094 0.06349038 -0.61578584 -0.41560546 0.3781557 -0.3038456 0.07953526 0.08307135 -0.033378158 -0.07629903 0.07444147 0.13756159 -0.03362465 0.06962369 0.37691575 -0.10413245 -0.4255485 -0.010937027 -0.4005638 -0.067012265 -0.14613537 0.0016378483 0.013765288 0.21367833 0.012368106 -0.11796104 -0.09512232 -0.009188983 0.08593611 0.5335915 0.06219012 -0.29315904 0.24601379 -0.23718406 -0.25803283 0.16116473 0.13767324 0.19474784 -0.04805369 -0.05531324 0.25792006 0.75941485 0.3073959 0.0018992263 -0.09860338 -0.14691436 -0.5868442 -0.586836 0.21040401 -0.17156518 0.25020894 -0.09751756 -0.21889804 0.05753534 -0.28001884 -0.2794207 -0.07680379 0.11037214 -0.9080484 0.12946245 -0.22026356 0.19184344 -0.1274133 0.036453146 -0.2360465 -0.005454259 0.087478705 -0.019146316 0.12575535 0.5570343 0.5421492 -0.22716178 0.01575621 0.07506684 0.5210072 -0.41052428 0.49142686 -0.35211372 0.31727555 -0.28933385 0.05005616 0.07138854 -0.10885761 -0.03345087 0.22769171 -0.13047765 -0.26889274 -0.45369488 -0.019805972 -0.30414996 -0.2734731 0.14842634 -0.062198468 -0.066976756 -0.061474394 -0.09008848 0.008940904 0.08000683 0.092716984 -0.01025438 -0.036775474 -0.17582767 -0.3360694 -0.35251415 0.33597466 -0.41839936 0.010059114 0.03721865 0.17758729 -0.07364516 -0.098839894 0.32296917 0.1572472 0.26599285 0.33031622 -0.23398523 -0.13530214 0.1087445 0.19850892 -0.37694556 -0.29707596 0.009969612 0.29787704 -0.22585635 0.095972866 0.10246811 0.07168424 0.18108958 0.11350437 -0.38146234 0.14621356 -0.32643473 0.19686633 0.06760973 0.35503712 0.40841562 0.09677991 0.41676256 0.050166324 -0.14002044 0.06866728 0.019366995 0.05023733 0.017964285 -0.008936253 -0.43828934 -0.008534043 0.06917237 -0.055475604 0.11460755 0.112100884 0.1460072 0.12556855 -0.13775997 -0.049685135 0.09243438 0.24092051 -0.3725758 0.15175831 -0.23332526 0.25099313 -0.01682252 -0.14755131 0.108845316 0.10503965 0.10751719 0.16250351 0.10833349 0.076135136 0.15866192 0.008245768 -0.083724864 0.014059505 0.12039015 -0.29978332 0.007874141 0.047236666 -0.03618117 -0.13672128 0.12028954 0.106989555 0.21117663 -0.005103258 -0.26966456 -0.1640626 0.025756907 -0.059438735 0.044975057 -0.08072788 -0.08808137 -0.13390982 0.08252106 -0.079297766 0.103834316 0.22532377 0.33349338 -0.29238448
、 0.55353266 -0.1908429 -0.13571681 0.117251456 -0.16349098 0.76554835 0.08031115 -0.019683132 0.059160292 0.0267522 -0.09687066 -0.12936461 -0.30843002 0.15500835 0.86179954 -0.37579107 0.30711642 0.6744885 -0.8269551 0.2717669 -0.04539749 0.41926533 -0.9931922 -0.19760208 -0.31801584 -0.23716384 0.88559985 0.10606605 0.119219005 -1.0810308 -0.24086161 -0.08469026 0.349721 0.35157108 0.3448565 -0.80574447 0.27903956 4.0572177e-05 -0.21506955 0.085678175 -0.6354788 -0.14786436 0.14470904 0.38171068 0.32737404 -0.28284153 -0.140761 -0.56260216 0.1293375 0.76832056 -0.60805124 -0.22660528 0.018598303 -0.5217886 0.42620975 -0.122305326 -0.3407464 0.82520443 0.46789598 -1.3355275 0.97980833 0.011861257 -0.7676069 0.6675764 -0.40634176 1.1690432 -0.121197 0.030769655 0.18753612 0.022278456 -0.08049295 -0.35848016 0.22052759 0.5654991 -0.287913 -0.47747743 0.23622727 -0.6040284 -0.50829756 -0.091657 -0.0030957859 0.24265216 0.9700998 -0.52500194 -0.4751645 -1.01872 -0.5254956 0.07213606 0.83639634 -0.60920566 -0.49639508 -0.1343342 -0.78344214 -0.47959042 -0.41377082 0.3033779 0.4979188 0.43276253 -0.4005751 0.5122071 0.43073294 -0.20929715 0.20702887 -0.44702566 -0.024427343 -0.28131345 -0.34432736 0.25171626 -0.23685671 -0.23166028 -0.36670244 -0.42036182 0.3415495 -0.6603331 0.22815628 -0.84653324 -0.8101845 -1.0471386 0.10300414 0.25943342 0.49092916 -0.16687755 0.15706554 -0.35999012 -0.03663966 0.38531384 0.5710106 0.82243764 0.33029985 0.5126085 -0.56076765 -0.4685187 -0.4127039 0.64467746 -0.7871281 0.90361345 -0.123750076 -0.3114365 -0.590093 -0.12657975 0.36641082 -0.5152403 -0.11739662 0.21731251 0.149457 0.46331418 -0.5939367 -0.13708423 0.47723427 -0.24152203 -0.63775116 -0.030100197 -0.4178754 0.21111302 -0.80443424 0.38901943 0.37783465 -0.54181415 0.7819522 -0.21896741 -0.3447037 -0.3219201 -0.9991847 0.09949767 -0.3286027 -0.2832935 -0.14448966 -0.7483828 -0.29414245 0.058943916 0.24947561 0.49441165 0.15818022 0.56323993 0.7035969 -0.16684105 0.055950895 0.2656923 -1.3731884 -0.59122175 -0.1581127 0.59569645 -0.040172093 0.1748521 -0.10864106 0.32199505 -0.10123547 0.2666764 -0.60859066 0.39650196 -0.6225702 0.190026 0.3913501 0.22433355 0.89936954 -0.5152376 0.37380436 0.57564783 -0.068840794 0.6905977 -0.2349148 -0.27328065 -0.7167862 -0.10163587 -0.7372638 0.07059808 0.019625064 -0.008784721 0.48097035 -0.012971475 -0.11211108 0.4579 -0.12553337 -0.07124354 0.6328259 0.14691736 -0.5565658 0.7087882 -0.11194079 0.37941602 -0.046918143 -0.7891048 -0.060928192 0.3423162 0.49821737 0.23020302 0.095313124 -0.084351555 -0.58806753 -0.31830183 0.09306641 0.4331152 0.020860294 -0.13526888 0.5290221 0.16980566 -0.10364184 -0.07397576 0.16269405 -0.10424825 0.439069 -0.32158288 -0.42701074 -0.37956858 -0.018645406 -0.19549644 -0.06653553 -0.37901604 0.45047793 0.15676153 0.082808055 -0.2455784 0.5075325 0.04546701 0.32513463 -0.7840845
为 0.40343773 -0.13438289 -0.10121438 0.06336323 -0.21768169 0.66311204 0.28692165 0.033213813 -0.017067138 0.0060690846 -0.12263217 -0.09761993 -0.19119155 0.28674167 0.57600635 -0.43354496 0.013118133 0.49020806 -0.72271204 0.43666002 -0.031811725 0.47979325 -0.70340735 0.044316906 -0.26793388 -0.16141172 0.72239107 -0.089957304 0.24426012 -0.66849506 -0.11189038 0.021905458 0.35956964 0.40003002 0.22608125 -0.7248199 0.2736081 0.01837216 -0.33461404 0.07379151 -0.4934327 -0.028290354 0.18696363 0.10233568 0.2120474 -0.29350886 -0.2263455 -0.27375975 0.04200286 0.6588497 -0.48221782 -0.51605296 0.05503351 -0.43082145 0.3555288 -0.020611096 -0.26567012 0.70092314 0.47169378 -1.0481517 0.702735 -0.18410286 -0.665679 0.53686786 -0.3928083 0.79362714 0.044223923 -0.106474444 0.055317376 0.039769452 -0.027182749 -0.25422898 0.1626345 0.30957475 -0.1283444 -0.39816904 0.09914149 -0.5365819 -0.3664025 -0.21964146 -0.045890965 0.08405029 0.71743006 -0.40030035 -0.31569135 -0.7492497 -0.25448844 0.07509672 0.62363905 -0.31106406 -0.46974173 -0.033254914 -0.5164997 -0.37945646 -0.14000535 0.18113416 0.53786564 0.1945676 -0.2343364 0.5305621 0.6389429 -0.008424874 0.053857584 -0.23685302 -0.18710858 -0.5167581 -0.6057595 0.27844495 -0.12928732 -0.026637074 -0.32135227 -0.39928627 0.23354444 -0.66726375 0.07301652 -0.58172244 -0.39861676 -1.1927023 -0.006610338 0.08015916 0.4483296 -0.10482036 0.23025793 -0.3581907 0.037864245 0.3573505 0.28593874 0.66792953 0.5078805 0.3485074 -0.67434216 -0.35119036 -0.18535407 0.6440717 -0.76721597 0.84162074 -0.144502 -0.13488038 -0.56851315 -0.08904658 0.2879451 -0.28479964 -0.025611812 0.23691434 -0.001669357 0.16434467 -0.6318032 -0.142784 0.334562 -0.09731916 -0.29977995 -0.05630482 -0.26931491 -0.071557924 -0.5899236 0.19195598 0.29540616 -0.23599423 0.6386776 -0.10844558 -0.26609972 -0.2688862 -0.85833067 0.1865936 -0.42100123 -0.17804372 -0.043808922 -0.47682548 -0.33829233 -0.009314374 0.25041187 0.3189891 0.30866447 0.43960714 0.52422756 -0.34763783 -0.029338384 0.19266742 -1.2438937 -0.4277887 -0.06403447 0.53223735 -0.23826738 0.22007875 -0.1904036 0.16344044 0.10743388 0.20706327 -0.5281211 0.30649656 -0.51361483 0.15688166 0.32739717 0.3912465 0.63748455 -0.2862511 0.33548963 0.4178555 -0.06572852 0.5317181 -0.110130794 -0.016402656 -0.6036546 -0.010984653 -0.7022318 0.15565284 0.026378907 -0.1396541 0.39811206 0.04912769 0.07953864 0.30886912 -0.24290727 -0.12755002 0.5429979 0.21792221 -0.6134078 0.64271694 -0.17126094 0.29118904 -0.026436353 -0.70120764 0.073290266 0.24459529 0.3968032 0.30049756 0.11536489 0.032242127 -0.23501061 -0.3758377 0.06485761 0.25396448 0.08876858 -0.2165325 0.24520138 0.18461584 -0.03204422 -0.025903586 -0.059289932 0.13865903 0.39039814 -0.27308947 -0.37871265 -0.30896875 -0.018853243 -0.15070051 0.07882774 -0.40935856 0.27060762 0.114697166 0.13444322 -0.23803154 0.34749198 0.1658393 0.57504505 -0.6643436
和 0.4653021 -0.1806099 0.012977699 0.00084903 -0.019615918 0.6778924 0.12802179 -0.12471472 -0.13558027 0.19850656 -0.165005 -0.13804 -0.31766352 0.04175256 0.70075977 -0.47808033 0.2415039 0.43092382 -0.8299167 0.39957327 -0.024974354 0.35389698 -0.81231505 -0.024452053 0.068092324 -0.25702164 0.95694864 -0.016180415 0.014000937 -1.2085009 -0.10417182 -0.20105955 0.13203418 0.36538985 0.119095825 -0.76185346 0.044629984 -0.14891694 -0.09765685 -0.24257778 -0.4948178 -0.026936011 0.16663821 0.06398172 0.38059223 -0.18105628 -0.2985343 -0.32993868 0.053739015 0.40418163 -0.5031143 -0.56792825 0.2207609 -0.20304687 0.46525833 -0.09799509 -0.45824197 0.6379019 0.58208257 -1.1869198 0.7256702 0.16922481 -0.6681126 0.49757484 -0.20180045 0.97104084 0.015795749 -0.034566656 0.13472642 -0.1441174 -0.15248625 -0.212915 0.08396609 0.16156468 -0.10956553 -0.32513377 0.15763368 -0.30140224 -0.42561814 -0.09168198 -0.050234906 0.20239507 0.857914 -0.5651166 -0.33838552 -0.9616032 -0.3966314 0.0702005 0.49698016 -0.4295323 -0.31526396 -0.065615684 -0.63529617 -0.47763017 -0.2193761 0.3205875 0.7515261 0.14558908 -0.4253784 0.48307216 0.41467425 -0.061522804 0.10525115 -0.23099327 -0.2989163 -0.4007104 -0.60438746 0.17712326 -0.19843493 -0.17188202 -0.57095194 -0.41369492 0.24377997 -0.77163213 0.12687358 -0.44861516 -0.3846517 -1.0008475 -0.05971206 0.023727268 0.4864016 -0.11890316 0.35408893 -0.32899782 0.23024708 0.51077867 0.28172743 0.7965862 0.45351604 0.28781414 -0.81251025 -0.39176762 -0.32779887 0.20704609 -0.62243134 0.75097406 -0.040745962 -0.21253778 -0.5639204 -0.16852234 0.3423358 -0.40773222 -0.1235165 0.22721559 -0.096475184 0.011781201 -0.6877865 -0.3950555 0.534122 -0.008753487 -0.3796511 -0.099290796 -0.21086334 -0.07216911 -0.72848594 0.27876395 0.3576792 -0.37133265 0.7800435 -0.10009684 -0.14094108 -0.12981412 -0.83915555 0.09775998 -0.38455015 -0.165441 -0.03197581 -0.7282721 -0.41577974 -0.011847612 0.1947797 0.4099111 0.15859653 0.38920826 0.8069648 -0.2117314 0.03024403 0.13577776 -1.2553266 -0.39617896 -0.22449733 0.445295 -0.15407588 0.2660139 -0.30951864 0.23564667 -0.07090824 0.18523836 -0.3801405 0.39407742 -0.40661463 -0.0025780587 0.30995846 0.28157744 0.5779771 -0.3952359 0.20599139 0.3804702 -0.024459027 0.6069618 -0.17026111 0.03577227 -0.8969169 -0.060323894 -0.64714974 0.24129546 0.114513695 -0.07755635 0.4852493 0.10854653 -0.027095027 0.338185 -0.19638777 -0.1646228 0.606294 0.10094664 -0.50699604 0.85878354 -0.16370773 0.23474388 -0.075252496 -0.94884765 -0.065461665 0.15238498 0.5263224 0.24653052 0.17452182 -0.1034044 -0.67945576 -0.53148794 0.16963024 0.42042357 0.17928936 0.027709011 0.375026 0.106848486 0.031070152 -0.21989708 0.14231847 0.024078514 0.22567923 -0.41179982 -0.37967262 -0.28115404 0.047760174 -0.14470208 0.08335886 -0.41325855 0.48091662 0.30239108 0.13890076 -0.22591846 0.33293456 0.046865657 0.22206809 -0.6791468
。 0.10151874 -0.061701044 -0.38178986 0.1851933 -0.09871634 0.46265244 -0.007996673 0.423696 -0.0397446 0.0782402 -0.06878938 0.07599409 -0.27609193 0.14802465 0.2611401 -0.16889155 0.015438454 0.2646533 -0.28291383 0.19734295 -0.011337226 0.32529783 -0.44233844 -0.033929072 -0.051283855 -0.20009524 0.27659807 -0.07358139 0.058123685 -0.17492057 -0.08406159 0.00044563052 0.2359969 0.12408281 0.119636066 -0.3992154 0.26070553 -0.06300166 -0.2647079 0.23781855 -0.12454305 0.12864904 0.18546298 -0.039151475 -0.027426757 0.07776136 -0.06316665 -0.16367447 0.016003225 0.12257606 -0.06738005 -0.3470321 0.020316651 -0.20146279 0.06774906 0.064870186 0.10149375 0.34858438 0.172879 -0.32462022 0.21636069 -0.46448526 -0.50516146 0.54409504 -0.29806837 0.22053112 0.050695762 -0.10442139 -0.011968338 0.09711735 0.047208037 -0.11983069 0.073185846 0.3251531 -0.07239531 -0.4600539 -0.015760923 -0.3614696 -0.19819713 -0.18558985 0.017930783 0.17453955 0.3840039 -0.17919655 -0.24898994 -0.18794534 -0.09178461 0.07481018 0.60015166 0.056023 -0.17533995 0.2977245 -0.33371994 -0.41196862 0.15126272 0.25611976 0.3819123 7.61227e-05 -0.1468979 0.18093072 0.7327593 0.3053654 0.032940853 -0.068439364 -0.18391362 -0.5615084 -0.6611947 0.20262432 -0.16076314 0.14333686 -0.25314516 -0.3139172 0.12916662 -0.39998505 -0.15310265 -0.06890281 0.07837866 -0.87078273 0.022926658 -0.2124668 0.21725625 -0.11788524 0.16667107 -0.21094975 0.10541342 0.26784626 0.001893291 0.25944847 0.4493699 0.36348203 -0.29697812 -0.13409121 -0.01611888 0.37334356 -0.44034535 0.49870938 -0.2192451 0.1837932 -0.2950456 -0.0660546 0.09506203 -0.23168641 -0.039886877 0.21432965 -0.13673498 -0.08258199 -0.52334267 -0.06470199 -0.045848504 -0.13175201 -0.005642173 -0.10985766 -0.24186493 -0.04168434 -0.20029244 0.10144304 0.12370502 -0.07257859 0.13098978 -0.0034364772 -0.14347747 -0.15582973 -0.36107117 0.07651509 -0.23877837 -0.062289506 -0.019812865 -0.08103351 -0.17529173 -0.06452861 0.24993233 0.13998713 0.20613354 0.28961968 0.115628205 -0.22120108 0.070471324 0.16450825 -0.589041 -0.23753817 -0.07207391 0.3187729 -0.24896096 0.10836116 -0.019661838 0.048294082 0.11042076 0.15528874 -0.3652435 0.16951318 -0.31968188 0.137891 0.091534816 0.25432894 0.4248027 -0.011165702 0.34862038 0.121470414 -0.08547658 0.21200466 -0.038033832 0.05144104 -0.2162059 -0.012424106 -0.43798983 0.09254386 0.027118534 -0.011739961 0.17169215 0.027425233 0.074833676 0.0884338 -0.10594409 -0.113248006 0.2930704 0.13356125 -0.30598566 0.3186086 -0.2644311 0.22208303 0.007830577 -0.2891125 0.10725765 0.16338955 0.18567966 0.16239242 0.10606911 0.031436816 0.018680923 -0.15225041 -0.06451217 0.08758822 0.12914541 -0.20410326 0.12255511 0.13001853 -0.04811996 -0.07365034 0.024703408 0.08131372 0.15328723 -0.16158383 -0.27262276 -0.17132728 -9.25774e-05 -0.12719806 0.08524336 -0.17405568 0.019435143 0.037457816 0.08442157 -0.07535851 0.15864328 0.20649739 0.26915956 -0.35291314
分别 0.5257351 -0.21199034 -0.04261662 0.11031741 -0.19196112 0.7200106 0.23442529 -0.114182115 0.12731381 -0.03306798 -0.09650256 -0.13940781 -0.40078977 0.17005652 0.95497215 -0.38852686 0.3121228 0.7176622 -0.9805155 0.32668975 -0.09139477 0.49722552 -1.2083663 -0.14075755 -0.24097067 -0.33232763 1.1019101 0.06387377 -0.0016694509 -1.2639738 -0.14700897 -0.23032244 0.17478405 0.4162616 0.35699946 -0.9771143 0.042301826 0.06455582 -0.11965196 -0.22229534 -0.5649493 -0.13085335 0.12720293 0.27198127 0.4200353 -0.19356972 -0.16334279 -0.443365 -0.019273235 0.70876175 -0.5610809 -0.49287975 0.21843141 -0.21433069 0.5410768 -0.15021214 -0.4762306 0.8485223 0.5733037 -1.3268101 0.91090316 0.16210309 -0.70568544 0.43518278 -0.3400384 1.1902981 -0.050813682 -0.07339366 0.11684931 -0.07256897 -0.012290454 -0.24603616 0.25938702 0.33553725 -0.2327601 -0.42812732 0.3226726 -0.76050335 -0.471889 -0.152661 -0.03890207 0.12010882 0.9389909 -0.56153345 -0.2909218 -1.0702505 -0.38797233 0.06452891 0.70228374 -0.5169412 -0.45747587 -0.20169617 -0.7213557 -0.53299654 -0.37664014 0.09596421 0.6353915 0.32895878 -0.44161966 0.64419407 0.5540137 -0.19711173 0.12343331 -0.42964232 -0.13008274 -0.5685186 -0.6870433 0.3137057 -0.17531145 -0.22909349 -0.5959689 -0.47295865 0.33630112 -0.75692064 0.20367184 -0.7677305 -0.7366477 -1.2547005 -0.044836108 0.12899992 0.56413674 -0.21499346 0.33552188 -0.42125568 0.062212747 0.45750573 0.43493706 0.89072734 0.6205974 0.62166435 -0.91782206 -0.40630424 -0.25280526 0.71918845 -0.86660916 1.009125 -0.14795013 -0.18987937 -0.67294365 -0.09218839 0.39434528 -0.41296348 -0.18021189 0.3266943 0.020517753 0.11659976 -0.82570946 -0.29160917 0.3887832 -0.16902392 -0.44665176 -0.10957544 -0.28639886 0.10025114 -0.9245421 0.47331452 0.4505452 -0.34176898 0.9938747 -0.23870245 -0.3631889 -0.32816616 -1.1201185 0.1534883 -0.4277988 -0.27208024 -0.1283451 -0.72886103 -0.27417606 0.091780804 0.38853437 0.63061345 0.26780394 0.5510427 0.73224396 -0.22634484 0.078746624 0.41917527 -1.4297026 -0.5462276 -0.0982249 0.64938885 -0.12409751 0.2079782 -0.13140748 0.33980474 -0.013297917 0.34808624 -0.7368422 0.52743775 -0.8666226 0.2441004 0.4221419 0.3155514 0.85848504 -0.4713279 0.34387606 0.47044066 -0.07482726 0.70575905 -0.0907946 -0.14942811 -0.8850936 -0.11146634 -0.9089751 0.21186188 0.07845406 -0.04479959 0.5431372 0.0065396125 -0.030131295 0.51545286 -0.23137608 -0.15703395 0.864172 0.2758135 -0.691587 0.88400394 -0.23019126 0.39788342 0.02794218 -1.043961 -0.071219414 0.32161525 0.48276785 0.38995683 0.18631522 0.033914883 -0.81286585 -0.32908207 0.19022119 0.6232288 0.11193171 -0.05815814 0.44701257 0.17419551 -0.124734454 -0.17580996 0.2110471 0.027790163 0.5159784 -0.36427155 -0.6085219 -0.4842059 0.016777152 -0.2665168 -0.043685604 -0.44965053 0.5410123 0.18531036 0.1265156 -0.26060978 0.5436457 0.089171365 0.45925012 -0.8311058
的 0.17719668 -0.08114743 0.106605366 -0.128532 0.0070753642 0.11215076 0.077891 -0.2663225 0.116685376 0.14748529 -0.1767159 -0.21434048 0.019745035 -0.04616587 0.11142361 0.14049655 0.049257178 -0.030285 -0.09114792 0.09205297 -0.016255982 -0.17673907 -0.15627962 -0.050561186 0.17326675 0.13771571 0.13411501 0.052504044 -0.16977559 -0.35864046 0.10214303 -0.091815084 0.09569949 0.10406987 -0.103171214 0.013278329 0.09370268 -0.15345551 -0.21294622 -0.039953757 -0.16402733 0.16130269 -0.06591383 -0.19469662 0.0059432844 -0.1392714 -0.24579784 -0.04226842 -0.033136822 -0.15586764 0.10346622 -0.31610858 -0.021216521 -0.050621647 0.07576354 0.040025223 0.09535576 0.00071261515 0.023103893 -0.0756378 0.15840124 -0.07092887 -0.10088106 -0.07272267 0.16049953 -0.002614566 0.06768992 0.025455154 0.20622928 -0.09256786 -0.14340472 0.06438636 0.026746197 -0.17349638 0.031913817 0.20332912 -0.016470093 0.13274723 0.041744377 0.0040793866 0.13348629 0.067644246 0.13482334 -0.117286645 -0.11250122 -0.18093331 -0.12906255 0.08779031 0.18284622 0.02077316 0.035675976 0.17954808 -0.054502178 -0.033800896 0.09466298 0.22569147 0.32182768 -0.1637983 -0.12422347 0.07180323 0.034869973 0.1567568 0.032959633 0.037673183 -0.021540033 -0.08796542 0.02279158 -0.096213125 0.0531578 -0.014212138 -0.09442458 -0.06432772 -0.09521067 -0.2670017 -0.14214712 0.020991845 0.034866977 -0.08237226 0.020777963 -0.080401205 0.11249187 -0.009159195 0.044338364 -0.10733674 0.11579402 -0.054954883 0.022950832 -0.033089682 0.08677148 -0.00013175409 -0.14867419 0.074117444 -0.048649833 -0.14202414 -0.07845833 -0.0019248391 -0.0005320685 0.0039858366 -0.1741103 0.13199684 0.13912041 0.062492296 -0.036523297 -0.03615913 0.026116429 -0.34178197 0.059166357 -0.22995529 0.10037195 0.02886585 0.034192853 0.12641607 0.22889766 -0.098078884 -0.13727495 -0.08134995 0.12166302 -0.10944935 0.15782292 0.093908526 -0.028528038 -0.12238711 -0.14809407 0.35226238 -0.28704262 0.06000305 0.15362716 -0.12663314 0.045882188 0.034971513 0.04984279 0.29703507 -0.18805619 0.01123272 -0.049710978 0.20431276 0.052135542 0.106086835 0.053068597 -0.29446778 -0.24998224 -0.0056431075 -0.0015199628 -0.06948764 -0.22690104 0.17466792 0.008298272 0.11027988 0.0924284 0.1224941 -0.16579555 -0.038860083 0.17806567 0.00072426774 -0.045428336 -0.11687653 -0.1634804 0.22754873 0.11988123 0.12189989 -0.026885316 0.14157799 -0.28280005 -0.0017044683 -0.015324892 0.02110782 -0.0091204755 0.049185418 0.2594709 0.27829748 -0.022189792 -0.02130129 -0.10137433 0.10159752 -0.14303508 0.084576756 -0.06672589 0.1650249 -0.14792652 0.090616316 -0.0689562 -0.21186043 -0.25992367 -0.19807923 0.081716545 0.0039507053 0.08138229 -0.13210498 -0.67767423 0.027575888 0.36753955 0.40983307 -0.028734839 0.09570094 0.066686235 -0.24205068 0.10975523 -0.42704022 0.33325532 -0.1031724 -0.17799205 -0.15702738 -0.39804736 -0.1576851 0.09030788 0.03237085 -0.10942465 -0.008131642 0.37160096 -0.097332045 0.024787731 -0.18688287 -0.028321175 0.0029833377 -0.6568005 -0.27491438
公司 0.06243466 -0.06294653 -0.11948985 0.10521842 -0.005340724 0.08872161 0.15780842 0.076261394 0.13872989 -0.13344271 0.033367295 0.037861124 -9.267406e-05 0.042137496 0.27110514 -0.050070956 0.07627612 0.24921955 -0.2739908 0.10419278 0.084134154 0.25459015 -0.26115754 -0.029384607 -0.24374355 -0.20674981 0.24569345 -0.055130932 0.06245311 -0.23715158 0.08341447 -0.109406374 0.09229767 0.11688825 0.18525156 -0.36708075 0.035135426 0.10096751 -0.052145705 0.08795105 -0.06340742 -0.08694692 0.043565705 0.100455336 -0.015811814 0.0011271746 0.046308376 -0.038074557 -0.057781808 0.23835364 -0.23244843 -0.13376968 0.13047066 -0.028310113 -0.00074934267 0.11648172 -0.07785952 0.28933072 0.11183119 -0.33273417 0.2211508 -0.12658331 -0.23680045 0.0991058 -0.21013406 0.269482 -0.018063005 -0.024494484 0.053301957 0.11410056 0.055786557 -0.08944417 0.09586725 0.24495992 -0.20756908 -0.1796478 -0.04307408 -0.25872588 -0.107624546 0.0053954 -0.09595668 0.129389 0.23460612 -0.039471164 -0.1429247 -0.15916246 -0.14628209 0.09056526 0.3188464 -0.0828875 -0.2200172 -0.049760666 -0.1582561 -0.1253718 -0.02020726 0.057174135 0.12557882 0.03679762 -0.07129451 0.24607697 0.2705627 -0.011913885 -0.041471966 -0.06820901 0.053375907 -0.22595534 -0.24457702 0.0862588 -0.051507182 -0.076744646 -0.14596663 -0.20676069 0.2296054 -0.18589485 0.057444267 -0.29068244 -0.09876726 -0.45157984 0.06575231 0.02724331 0.20128825 -0.05889948 0.1143318 -0.16387726 0.043501623 0.10568612 0.02152179 0.2587561 0.33654556 0.43275565 -0.3673175 0.023849465 -0.06965206 0.34825996 -0.23539115 0.35109413 -0.11872659 0.16171865 -0.27497417 -0.020215074 0.06319287 0.044090215 -0.2614863 0.05840042 -0.15331168 -0.07446196 -0.5081476 -0.13632703 0.011165706 -0.033093043 -0.10838259 -0.08188788 0.08067313 -0.009315328 -0.20807756 0.1543795 0.14446646 -0.023042843 0.21564008 -0.1690022 -0.17235652 -0.23618424 -0.2949388 0.23615012 -0.31540936 -0.018691963 0.019499814 -0.10427081 0.046144467 0.009216806 0.111634314 0.1898039 -0.075249165 0.26194867 0.12773663 -0.06815357 0.053516477 0.15849806 -0.3403685 -0.2089046 -0.074135706 0.1650138 -0.04984999 0.023143455 0.050268367 0.14453503 -0.0035214578 0.1594111 -0.35874137 0.056650393 -0.4231639 0.26777118 0.14489327 0.08433889 0.37598485 -0.13986847 0.066965565 0.17086186 0.006112481 0.23797591 -0.061697375 -0.11705771 -0.2088906 -0.15330857 -0.26498884 0.10126257 -0.09673349 0.018584818 0.30889156 -0.048085093 -0.06939678 0.04179551 -0.034938402 0.028346354 0.17253128 0.27398777 -0.20032716 0.15862274 -0.22294696 0.08444495 0.1379276 -0.37081146 0.012795376 0.10769201 0.029825816 0.09561822 0.051461775 0.017298054 -0.22586028 0.077539325 0.07466921 0.20358191 -0.040532365 -0.1394363 0.10767332 0.006523809 -0.038934413 -0.069575556 0.2009909 -0.071329154 0.14033431 -0.14115003 -0.28719112 -0.15342799 0.002948627 -0.1289892 -0.18842827 -0.06289138 0.18835966 -0.17180327 -0.020618781 -0.044488266 0.16824636 0.045145594 0.0101762675 -0.3595293
占 0.6313583 -0.29106486 0.15838303 -0.09646575 -0.19862475 0.7648784 0.6109728 -0.5570008 0.36246154 0.15847939 -0.393944 -0.3649667 -0.16855961 0.14424464 0.91325545 -0.17407742 0.09822281 0.4920582 -1.0701702 0.6478179 -0.08317455 0.23620738 -1.0582696 -0.08920943 -0.20378608 0.030226624 1.1123955 -0.07192318 0.13465962 -1.3033168 0.08425187 -0.11243114 0.599253 0.6725386 0.15818949 -0.78187656 0.35143712 -0.14157103 -0.48075697 -0.095312476 -0.6958971 0.14574872 0.06742657 -0.25560388 0.29158223 -0.36582565 -0.5833144 -0.21396591 -0.23313315 0.35902563 -0.47313532 -1.20614 0.39130202 -0.22090168 0.50395006 0.08649672 -0.46250224 0.68055385 0.5850542 -1.214623 1.0802567 -0.004921084 -0.762482 0.15531947 -0.10472668 0.90518963 0.11425305 -0.11391839 0.41628063 -0.056404963 -0.20915942 -0.14984925 0.2525818 -0.22214454 -0.23149231 0.055680793 0.11502764 -0.5200001 -0.26971516 -0.20507579 0.034421176 0.15557663 1.0919518 -0.55751604 -0.41750592 -1.1590296 -0.46474102 0.32409486 0.7451964 -0.37725803 -0.35494685 0.071822025 -0.46581194 -0.34682766 -0.02082906 0.39564535 0.9776552 0.010108808 -0.26611122 0.708132 0.5654025 -0.01351394 0.1253056 -0.1526089 -0.00054064055 -0.51177865 -0.40711072 0.03297907 0.1289956 -0.15523684 -0.32893318 -0.48235667 0.13871005 -0.992041 0.042974 -0.8051938 -0.5561986 -1.1082656 -0.0001534808 0.12910111 0.49037626 -0.025538415 0.2566882 -0.48337796 0.07141973 0.30009714 0.5031799 0.6398972 0.5583027 0.18111442 -0.9326818 -0.28511682 -0.23556904 0.5480851 -1.0372262 0.7807784 -0.042924892 -0.344733 -0.79795146 0.06790861 0.41555148 -0.10224233 -0.08803794 0.11588198 0.20194991 0.03830439 -0.5377826 -0.34177348 0.70075274 0.14390576 -0.30717397 0.15995036 -0.20169902 -0.11560304 -0.8197552 0.19179 0.36563092 -0.5436607 0.8970556 0.19890483 -0.36754432 -0.2836999 -0.9641684 0.33757472 -0.54616714 -0.1376183 0.14244474 -0.7832837 -0.39964864 0.1946667 0.19754529 0.6707178 -0.06250178 0.36245966 0.78583145 -0.260125 -0.09927253 0.2878081 -1.3440949 -0.74197155 -0.3778641 0.431506 -0.33652133 0.12361789 -0.9369616 0.3605809 0.29998094 0.26678208 -0.31866965 0.30762964 -0.5759269 0.048865438 0.42931244 0.3719882 0.5856237 -0.34837145 0.10832384 0.55973494 0.02624499 0.84862787 -0.23593612 -0.102173485 -0.89181495 0.083620645 -0.6346348 0.19882527 -0.20848818 -0.007722984 0.6673216 0.28498492 0.0018354497 0.33344513 -0.31452298 -0.024296897 0.53023326 0.26622838 -0.7847917 0.92778355 -0.26070648 0.47038072 -0.08550257 -0.86842024 -0.29249468 0.3062826 0.3721258 0.32730106 0.23644958 -0.02558272 -1.0936881 -0.24136962 0.54801285 0.91198593 0.0005369561 0.02872199 0.35337335 -0.15951252 0.0496261 -0.47349936 0.16578442 -0.08348277 0.13979234 -0.43585718 -0.9214057 -0.6466888 0.05339356 -0.059120007 -0.12952918 -0.5104278 0.840678 -0.017608142 0.1857196 -0.5592895 0.377601 0.16156751 -0.17871028 -1.0797641
截至 -0.09821481 -0.18995476 -0.67818093 0.55539745 0.05607963 0.45958093 0.4817047 0.47722188 -0.24901704 0.07776128 -0.43442598 0.48043668 -0.036557116 0.2457931 -0.049985312 -0.73493254 -0.8007278 0.1025458 -0.45795116 0.85242015 0.039845567 0.67201495 0.378911 0.31877857 -0.5047104 -0.083958425 -0.09068277 -0.47314426 1.0590533 0.8710429 -0.08142005 0.68972415 1.0675323 0.50142753 -0.031946853 -0.67779356 1.0532343 -0.11657731 -0.87846386 1.0563191 0.069202416 0.51494735 0.21786855 -0.7217007 -0.4576114 0.14022774 -0.24067779 0.27425325 -0.30594483 -0.16487838 -0.00096603465 -1.4281065 0.43355584 -0.32214797 -0.13299002 0.50202847 0.09016437 0.41458112 0.47262207 -0.12167106 0.003956255 -1.1065077 -0.8817857 0.43369886 -0.51236933 -0.33006087 0.16426912 -0.5120077 0.05678119 0.5052443 -0.061700705 -0.16769557 0.10488258 0.21505608 -0.12566578 -0.6014334 -0.5980172 -0.40767157 -0.24951819 -0.50232476 -0.13735345 0.043045934 0.46005234 -0.032487772 -0.5610206 0.11950144 0.11803886 0.32506698 0.8533918 0.41239518 -0.41844073 0.622067 -0.044335213 -0.41370422 0.92371625 0.51532197 0.5325994 -0.06862942 0.38510406 0.14619976 1.2364641 0.5418206 0.09351011 0.34991062 -0.1281611 -0.84073997 -0.7939395 0.18353288 0.17299649 0.58441484 0.1307804 -0.742942 0.13668264 -0.6961535 -0.14801405 -0.1793139 0.6547747 -1.171835 0.17001309 -0.14450923 0.0320699 0.27008983 0.07403379 -0.36808366 0.073029846 0.40452993 -0.15811032 0.1892076 0.6957618 0.2179302 -0.33816874 0.11517305 0.19546239 0.44198576 -0.83220905 0.43412974 -0.43157902 0.563457 -0.39534083 -0.18103336 -0.14266221 0.2219222 -0.123451225 0.06702796 -0.19799155 -0.1270395 -0.8506505 -0.0803051 -0.07696376 0.3329884 0.46740162 -0.10110465 -0.07046382 -0.8386875 0.040938687 -0.33009118 -0.08838198 0.14044897 -0.2745209 0.50204515 -0.028317735 -0.22041883 -0.028713992 0.17311491 -0.44593662 0.2475932 0.49107596 0.24859583 -0.1462826 -0.029251505 0.13246253 0.117090486 0.28061554 0.25044242 -0.04418484 -0.78891647 0.019664938 -0.05645871 -0.43245128 -0.23643957 -0.6262213 0.14198767 -0.8814401 0.018030655 -0.39395937 -0.13799438 0.396513 0.3087442 -0.27235186 -0.32021415 -0.13107866 0.17605183 0.19162048 0.6091157 0.2988668 0.17277934 0.54838514 0.20069052 -0.07860108 0.32549557 -0.19741413 0.3103799 -0.17792875 0.07802794 -0.5619069 0.39211807 -0.26185098 -0.18694289 0.10424758 0.3676965 0.38433823 -0.4506055 -0.008374415 -0.07645088 -0.11397988 0.2847438 -0.54337054 0.38200533 -0.569752 0.09116356 0.19490865 -0.2512672 0.38416958 0.36081606 -0.09940983 0.11981196 0.15946557 0.13083565 0.58776027 0.17045447 -0.084016256 -0.26857936 0.07284583 -0.72809786 -0.36494553 0.12232957 0.12568654 0.0019591975 -0.38031483 0.3207792 -0.12988389 -0.47060952 -0.6284819 -0.008156447 0.021202099 -0.31271744 -0.005397653 -0.05288847 0.09795112 -0.20231879 0.24396576 -0.02988341 -0.22149692 0.5557867 -0.01677756 -1.1021037
2014年末 0.06788293 -0.0005711454 0.029600661 -0.009907021 -0.49523842 0.005651644 1.325789 -0.10237439 1.0025479 -0.64499 0.017717725 0.052484684 0.4575087 0.4406584 0.60361564 0.20927696 -0.26597142 0.48844478 -0.69647795 0.63364255 0.15035586 0.49073148 -0.27835697 0.22691593 -1.2324537 -0.04072385 0.55539036 -0.2645667 0.629452 0.007399711 0.6751174 -0.1948819 0.79736346 0.5917934 0.5930837 -0.5596507 0.25991338 0.53712505 -0.17689767 0.3691744 -0.49258667 -0.39889523 0.11049016 0.04867114 -0.42679358 -0.5204394 0.045756925 0.42924857 -0.36035627 0.9361894 -0.8579091 -0.52453566 0.45915163 -0.54816216 -0.010262117 0.45378956 -0.20461342 0.5069953 0.11688564 -0.74326366 1.0843964 -0.57740545 -0.3809895 -0.111582436 -0.45626786 0.41885898 0.13916078 -0.19530867 0.28249037 0.67185134 0.16310987 -0.32782134 0.031378534 0.3356001 -0.8161629 -0.08046788 -0.5029095 -1.0473593 0.14868535 -0.19513316 -0.35924107 0.55146736 0.7979802 0.0808217 -0.18906887 -0.118695535 -0.25378817 0.8196871 0.6122167 0.24357808 -0.2157122 0.0939413 0.09536396 -0.35062295 0.33739805 0.19101946 0.6806982 -0.35385033 0.22621924 0.94434786 1.1577761 0.2674991 -0.560619 0.2819058 0.48261425 -1.1511517 -1.1430345 -0.0524716 0.2482958 -0.22224927 -0.2906684 -0.60353905 0.40093088 -0.48623058 0.1048191 -0.809548 -0.020118289 -1.136839 -0.11342941 -0.016724551 0.29308975 -0.017131558 0.1060491 -0.27396208 0.0424185 -0.22798394 -0.06524349 0.34153724 0.9046553 0.4771651 -1.0566591 0.47582197 0.42106074 1.6731651 -0.91875535 0.8410843 -0.3642654 0.29507166 -0.74403375 0.1236857 -0.0810782 1.0555536 -0.5858784 -0.119583085 0.12907092 0.3101957 -0.8533733 -0.044077694 0.08511675 0.6444213 0.0024296157 0.035381865 0.01839942 -0.027587779 0.057763282 0.24470878 0.04655524 0.027033756 0.26093778 0.030666886 -0.48803106 -0.28308722 -0.27789086 0.15075964 -0.35101387 0.14371425 0.1446157 -0.0340337 0.109872855 0.46643993 0.026180025 0.33862668 -0.45017192 0.48409888 0.40703413 -0.61463946 -0.24415848 0.23569699 -1.0689248 -0.42035988 0.19161247 0.15852572 -0.6844149 -0.07384885 -1.0816816 0.022242006 0.8254179 0.25970873 -0.6661799 -0.32917735 -0.89339864 0.6510325 -0.023018708 0.4126086 0.8631719 0.26464608 0.17261453 -0.16057003 -0.12546593 0.8812018 -0.091535315 -0.47558507 -0.37927696 -0.08465774 -0.38257572 0.28423873 -0.919806 0.2461448 0.74197555 -0.21038383 -0.05114232 -0.037362862 -0.30309498 0.047680855 0.4674889 0.813889 -0.85138255 0.17204945 -0.68745166 0.49702403 0.38366085 -0.48799366 -0.075729735 0.6822017 -0.43357855 0.24148487 -0.00039872757 0.46012756 0.04611996 0.6567951 0.036878355 0.69202745 -0.23002781 -0.023399163 0.12778743 -0.26356557 -0.3978366 0.032180224 -0.117848635 -0.25639072 0.2535731 0.06416443 -0.7537348 -0.76342374 -0.2381706 0.15806822 -0.7725613 -0.5970721 0.35070422 -0.87410414 -0.03094357 -0.6078608 0.5328353 0.3993539 0.59357285 -0.77063465
发行 0.2865775 0.15283388 0.24760653 -0.19518244 -0.1939819 0.41587576 0.29025674 -0.0011339185 0.123537175 -0.13318925 0.04425811 0.044086926 0.0026892528 0.07411523 0.5157881 -0.35084257 0.17279159 0.34820542 -0.5527038 0.2958591 0.038598977 0.33221596 -0.37823933 0.25761724 -0.55011857 -0.07516269 0.74172896 -0.09259494 0.40755838 -0.40376106 -0.09052788 0.021120258 0.42991963 0.32093388 0.28250185 -0.13860965 -0.009946154 0.10504089 0.26626715 -0.08580898 -0.7033497 -0.6811056 0.21865927 0.6218431 0.24915443 -0.8816092 0.17134003 -0.018536622 0.48214045 1.2848394 -0.78588176 0.6126868 -0.28242707 -0.9800802 0.3112916 -0.29827783 -0.07440103 0.45608482 0.15676525 -1.0035609 0.93464935 -0.16251607 -0.39618397 0.90095794 -0.43324083 0.6440436 -0.06102772 0.017596003 0.16994356 0.47076768 -0.085921235 -0.5085 -0.45311397 0.7811269 -0.35471648 -0.64513135 -0.20991412 -0.30483112 -0.21105151 -0.057761148 -0.055460665 0.8835398 0.8686974 -0.51420504 -0.32297742 -0.2081222 -0.3730162 0.36977437 0.23822711 0.058426358 0.11069769 0.088843286 -0.40384096 -0.65752715 -0.10163857 0.38057217 0.77286613 -0.18775475 -0.40728524 0.43028465 0.5556144 0.16113387 -0.23275656 -0.0010743954 -0.24683164 -0.7014376 -1.1997908 0.15882288 -0.12784368 -0.3524068 -0.84260863 -0.46356297 0.20936178 -0.41582802 0.23113488 -0.2979801 -0.008975215 -0.65122485 -0.40551868 -0.28910255 0.07721716 -0.10379158 0.32671502 0.009892598 0.2937536 0.22754452 0.1691481 0.566476 0.13217482 0.060932916 -0.66664726 -0.3489572 -0.0037257005 0.53870684 -0.36023206 0.5784516 -0.026384745 -0.23057738 -0.48309985 -0.21277726 -0.008646898 -0.09626432 -0.12212372 0.20049402 0.02887757 0.5769881 -0.50807244 -0.045609545 0.67823553 0.36513618 -0.34714207 -0.2208541 -0.3711451 0.2253683 -0.23440123 0.5614585 0.27729467 -0.37858742 0.6848115 -0.10322256 0.011740503 0.08930161 -0.43654135 -0.23404545 -0.17353433 -0.06260085 -0.10049158 -0.66413647 -0.15094268 0.13778971 0.09555161 0.39847097 -0.22560859 0.25504243 0.90736943 -0.11757638 0.15527073 0.2438937 -1.0958774 -0.059780832 0.16557331 0.17284766 -0.31307244 0.1693983 -0.53737986 0.01663503 0.21086214 0.17575589 -0.33850166 0.18769966 -0.49756017 0.18457866 -0.08676342 0.050619457 0.52697694 -0.07668532 -0.013095793 -0.19500038 -0.020262366 0.5562104 -0.11764193 -0.25108907 -0.5180893 -0.007217467 -0.13227832 0.22717877 -0.29941794 0.08028086 0.21291147 -0.5777759 -0.19902427 0.4239724 -0.037311405 -0.37840375 0.7107994 -0.09621965 -0.41013452 0.54059315 -0.12956977 0.2829343 -0.086652555 -0.4779365 0.078862935 0.630538 0.2523289 0.14544079 -0.09663256 0.23010102 0.31961092 -0.4060093 -0.35169014 0.10830398 0.14538886 0.3698289 0.27555934 0.09584481 -0.27479663 0.26231003 -0.39519906 -0.06959511 0.35688397 0.059453208 0.21278979 -0.27799517 -0.15950073 0.18776205 -0.032424632 -0.5964345 -0.048562624 0.1838921 0.051205464 -0.2119897 0.43813428 -0.002900768 0.9929946 0.07560529
人 0.12249197 0.01957606 0.38273978 -0.15256724 -0.2315022 0.14135584 0.35429078 -0.07078851 0.3502006 -0.120333284 0.19621716 -0.04930652 -0.010704515 0.11763209 0.5424959 -0.23281841 0.27535018 0.2085165 -0.5312129 0.34231004 0.036136054 0.22231062 -0.45564988 0.14575057 -0.38492945 -0.09889048 0.72616285 -0.13667722 0.27896035 -0.42655364 0.03551277 -0.24913162 0.033246018 0.24770005 0.3529717 -0.29050446 -0.15919626 0.17807616 0.28281933 -0.2875067 -0.3724481 -0.399216 0.28973266 0.36911383 0.19858849 -0.35099998 -0.016887432 0.048356585 0.25861424 0.8477227 -0.7053585 0.19037974 0.053906515 -0.3945377 0.3189159 -0.25069702 -0.45751542 0.2755413 0.18243915 -0.7988557 0.61297345 0.10151295 -0.17155959 0.37276456 -0.17609711 0.66011316 0.05335647 -0.015065274 -0.21161048 0.14394383 0.07700223 -0.41282248 -0.29580253 0.32632166 -0.21193682 -0.40724868 -0.023001311 -0.34311953 -0.17337114 -0.116539635 -0.31127223 0.30222085 0.6926748 -0.27551526 0.035536326 -0.3160004 -0.18005842 0.23775594 -0.14414284 -0.08571955 0.049710944 -0.18937601 -0.21123788 -0.4506986 -0.26860464 0.08580527 0.5361241 -0.0730261 -0.1264258 0.5650853 0.289684 -0.17017464 -0.2650133 0.00675443 -0.05518834 -0.29414484 -0.7206958 0.048148207 -0.088318214 -0.29543194 -0.43766338 -0.22737214 0.15418303 -0.13615525 0.30176386 -0.3786885 -0.27681786 -0.39179498 -0.33392864 0.1082001 0.18831512 -0.028878687 0.4020639 -0.057573408 0.31021845 0.24036284 -0.03535701 0.6418128 0.44370174 0.010546301 -0.8484418 -0.24786411 0.018060425 0.4635537 -0.25058433 0.5780825 -0.09865232 0.0019353192 -0.37267673 -0.16204317 0.060347643 -0.015835704 -0.21557777 0.21103853 -0.055176113 0.23901114 -0.6925409 -0.24337915 0.39522678 0.4426275 -0.19273831 -0.20050882 -0.0044639483 0.08707584 -0.35647857 0.51423573 0.45994818 0.0012882594 0.912721 -0.34311354 0.031429514 -0.0035578874 -0.51702833 0.21940245 -0.49644396 -0.13614918 0.0029434902 -0.50232697 -0.034664884 0.17626852 0.43464148 0.55103 -0.23695888 0.1539145 0.63948303 0.01386009 0.18578227 0.321898 -0.80687875 -0.23219548 0.1763269 0.047317464 -0.19198196 0.10577151 -0.38288242 0.055793203 0.113866456 0.3745315 -0.36464012 0.31552878 -0.835127 0.30506325 0.1643184 0.06355072 0.45030007 -0.23201394 -0.21033521 -0.058036283 0.17629974 0.6475975 0.053714033 -0.012856905 -0.57771116 -0.018896498 -0.31393394 0.30969816 -0.1933221 0.1311856 0.25038758 -0.3779007 -0.12658101 0.30298838 -0.27889988 -0.37943074 0.74440473 0.06255035 -0.41734314 0.35628778 -0.2549132 0.29411522 -0.01611962 -0.59493035 0.11862374 0.41494128 0.13927202 0.2258784 -0.05398527 0.19326285 0.093947135 -0.41776446 -0.2093722 0.30104527 0.1515709 0.3712661 0.33218357 0.0022264356 -0.20496838 0.0021716475 -0.13921341 0.05833835 0.23303363 -0.037708852 0.05250655 -0.19856156 -0.10844007 0.1400979 -0.14198594 -0.520996 0.11082282 0.17357849 0.11281185 -0.14245696 0.40583256 0.1290864 0.5051287 -0.073760234
及 0.2960854 0.00352793 -0.05285913 0.0020452582 -0.37744126 0.36740008 0.257419 0.067609005 0.16947103 -0.24574766 0.08904866 -0.1264857 -0.0011262158 0.34785452 0.41776216 -0.10866209 0.0548326 0.4511036 -0.36171812 0.023535192 -0.0372514 0.2560656 -0.46348345 -0.0717418 -0.31452018 -0.14983787 0.46376717 0.20206164 -0.097831696 -0.65041476 0.04617926 -0.21715026 0.037765253 0.12072233 0.3710186 -0.52708143 -0.07609963 0.22641407 -0.02395174 -0.09386126 -0.45134634 -0.22254075 0.037045736 0.44033492 0.13863154 -0.22939506 0.03688475 -0.26470122 -0.017535591 0.66235346 -0.44719076 0.13819493 -0.031943858 -0.400496 0.29640675 -0.08872028 -0.21706533 0.49283233 0.1506391 -0.7629283 0.68031234 0.067605585 -0.29499123 0.14541599 -0.300056 0.73712987 -0.09546779 0.12067237 0.03798133 -0.01195688 0.10528059 -0.18710946 0.2361591 0.43074724 -0.22777815 -0.18499686 0.18898298 -0.63860244 -0.1894913 -0.002402989 -0.037547175 0.090034746 0.42268142 -0.12424723 -0.09971526 -0.5852373 -0.2567861 0.13242684 0.40133128 -0.39789668 -0.29044157 -0.2813565 -0.41336071 -0.2452481 -0.40734023 0.012829729 0.21926749 0.24349762 -0.21895257 0.5456601 0.45909142 -0.13016425 -0.102584295 -0.33992437 0.06908532 -0.49448678 -0.506219 0.1595674 -0.20621999 -0.26220727 -0.37021393 -0.1810024 0.27557245 -0.368797 0.09397581 -0.53401875 -0.66917217 -0.95027226 0.0044762776 0.14011852 0.5432801 -0.27339748 0.10857746 -0.23035531 -0.08840093 0.0069052097 0.25966343 0.52261436 0.5858005 0.597308 -0.63672054 -0.012746897 -0.14000756 0.84858733 -0.6016162 0.7999924 -0.20738795 -0.046421457 -0.39538252 0.024392353 0.28126937 -0.006941803 -0.28616652 0.18156494 0.04833562 0.019440014 -0.4642282 -0.22460613 -0.10349119 -0.2300344 -0.4004819 0.03626711 -0.08681493 0.22832201 -0.50116795 0.22760162 0.19641457 -0.050244123 0.49828187 -0.36201188 -0.4156206 -0.24453014 -0.7406051 0.047462866 -0.062108062 -0.21687804 -0.24868815 -0.30787212 -0.104635976 0.12046312 0.14086016 0.18223187 0.25899306 0.42405504 0.2874499 -0.21381408 -0.11104266 0.16133538 -0.9995163 -0.35077897 0.30495626 0.42801383 0.07070707 0.09547473 0.010680779 0.17225368 0.06484251 0.09128752 -0.5766232 0.34151107 -0.63616365 0.26179993 0.2545952 0.19323581 0.69348246 -0.25649023 0.32197663 0.27478218 -0.14119016 0.5049118 0.059029754 -0.20416552 -0.51487094 -0.15256104 -0.696235 -0.064163715 0.050075974 0.082905754 0.46428928 0.010159118 -0.044686593 0.3166313 -0.26976871 -0.0047883894 0.52551043 0.47600043 -0.4573815 0.32419324 -0.21924227 0.32560512 0.118108295 -0.7444993 -0.22650774 0.034862835 0.1965132 0.26916364 0.052104753 0.010191353 -0.57846236 0.009268502 0.094456516 0.49031398 0.003491287 -0.018880894 0.4355312 0.10439969 -0.24573806 -0.074855454 0.23466057 -0.1462674 0.43704873 -0.025857175 -0.36456966 -0.4489575 -0.10320206 -0.12410407 -0.1811645 -0.3666137 0.289786 -0.11542658 -0.0036168036 -0.3190032 0.5372158 0.05380719 0.5802072 -0.39418682
2013年末 0.11841622 0.028170131 0.1523352 -0.10178484 -0.51929724 0.066367045 1.359692 -0.105502374 1.0145539 -0.6858643 0.06161746 -0.0111157205 0.56578517 0.46472457 0.6107816 0.12432509 -0.2250877 0.5136568 -0.69367605 0.63603973 0.1463024 0.5054672 -0.24573934 0.28742528 -1.2856914 -0.1192859 0.6785502 -0.23972103 0.521642 -0.19774695 0.70850784 -0.31733215 0.6604985 0.60029334 0.6289702 -0.6605092 0.07740444 0.5933026 -0.058737174 0.19123524 -0.6087093 -0.51634896 0.104371645 0.21326226 -0.36016208 -0.64520633 0.0752044 0.48038706 -0.3123665 1.1125627 -1.0377073 -0.32533932 0.46619612 -0.6013168 0.11534868 0.35242364 -0.25440544 0.51262057 0.10453841 -0.93987477 1.2321379 -0.47302723 -0.36301005 -0.13602029 -0.4755305 0.5816896 0.11639479 -0.09421966 0.31833315 0.68627745 0.16735283 -0.4099244 -0.060807195 0.3893997 -0.8592345 -0.11411323 -0.49949566 -1.0505784 0.13074577 -0.2014321 -0.3809026 0.61250716 0.85114235 -0.0012775991 -0.15214413 -0.19044216 -0.33525202 0.87151736 0.5032274 0.13199434 -0.1917172 -0.03477418 0.022529548 -0.37054175 0.19599694 0.18326652 0.7853173 -0.38286152 0.16318692 1.0898262 1.1140014 0.1578871 -0.6262645 0.25943258 0.41850874 -1.1919572 -1.3036269 -0.051226936 0.21449405 -0.337175 -0.47608647 -0.64319515 0.44887912 -0.54589283 0.1860667 -0.83267957 -0.110905245 -1.1725703 -0.1884494 -0.042055037 0.33241308 -0.046000026 0.19782259 -0.26693437 0.1331785 -0.21320516 -0.024849718 0.42438596 0.9562991 0.50515586 -1.2514995 0.42780888 0.39555705 1.7338094 -0.9360748 0.9053778 -0.37573764 0.23720115 -0.76313406 0.098817825 -0.06517615 1.0633799 -0.66389877 -0.044311166 0.097561516 0.30315655 -0.9215268 -0.17906709 0.15533908 0.6664925 -0.07930429 0.022119155 0.06587972 0.068739474 -0.008215531 0.4118259 0.13134481 -0.047446087 0.48370498 -0.013176172 -0.49680445 -0.27736354 -0.39934063 0.1491049 -0.33660308 0.118011236 0.09386709 -0.18775758 0.12575416 0.47400463 0.058290828 0.40246204 -0.48253906 0.54326403 0.5327238 -0.6058795 -0.22293955 0.29223156 -1.2249608 -0.4405875 0.300176 0.15632041 -0.64697254 -0.06522573 -1.1677771 0.05791522 0.83302134 0.3253303 -0.6958245 -0.20522682 -1.0012641 0.65335304 0.01673714 0.3671766 0.8931873 0.16595389 0.10443709 -0.1564957 -0.07769478 1.0230305 -0.072007 -0.49375343 -0.5527981 -0.09418476 -0.3941501 0.2692543 -0.89038575 0.30249295 0.80719924 -0.313657 -0.14301129 0.09968124 -0.32601365 -0.035472002 0.5752616 0.8418184 -0.91496074 0.24269891 -0.72144574 0.5882148 0.40922368 -0.71596056 -0.15697153 0.7175055 -0.36477467 0.25240913 -0.05329339 0.46747875 -0.017805519 0.565549 0.026273 0.75400394 -0.20817108 0.1253627 0.19440019 -0.2694239 -0.42812225 0.055546295 -0.14554627 -0.30523968 0.3032161 0.07071436 -0.6422764 -0.80587935 -0.26232082 0.23640044 -0.80205774 -0.70106614 0.3859037 -0.8093924 -0.0066541512 -0.7198495 0.62080556 0.41014498 0.8418756 -0.6815643
较 -0.166138 0.2653437 0.25743902 -0.24971928 -0.16078603 -0.33168566 0.70679456 0.087196656 0.620476 -0.6031914 0.26678798 0.26408654 0.6502742 0.087703064 0.12338297 0.051109105 -0.024488835 0.17742641 -0.23783463 0.20453672 0.30713743 0.37034494 0.47328025 0.46934757 -1.1211095 0.015149998 0.13015093 -0.39240283 0.70763385 0.5661072 0.39269778 -0.0791316 0.480731 0.21592413 0.38527203 0.41213202 -0.01728321 0.481074 0.38610396 0.19774021 -0.30426234 -0.9059602 0.22591645 0.6248289 -0.18953334 -0.8131546 0.40494627 0.51939183 0.32816815 1.2748849 -0.86205846 0.9023853 -0.09918413 -0.7242198 -0.2639991 0.12175015 0.029911986 0.07984263 -0.3643457 -0.39957634 0.6945624 -0.35175288 0.14601511 0.24057516 -0.3236767 0.050444596 0.08193893 0.029020518 0.28315505 0.8575123 0.06890138 -0.49004748 -0.611115 0.78147197 -0.6787033 -0.3389709 -0.6567267 -0.1387593 0.26712006 0.14725806 -0.35886136 1.0851873 0.41941196 0.07198497 -0.07647416 0.64301836 -0.35832405 0.69390005 -0.075547285 0.41187862 0.17966999 -0.07586731 0.23399056 -0.10478719 0.05576465 0.092619315 0.33154812 -0.5118419 0.1299688 0.5080147 0.21867187 0.08038692 -0.6730196 0.3817963 0.2961516 -0.2747684 -0.66883415 -0.08380053 0.12691751 -0.4397041 -0.32438248 -0.20818265 0.3493793 0.32944474 0.29445562 -0.37039712 0.3201012 0.21570267 -0.32660532 -0.15427993 -0.19360949 0.091861956 0.22194378 0.17677978 0.21364011 -0.26516363 -0.25936922 0.04508514 0.14085388 0.16322331 -0.54904467 0.21783029 0.33703795 0.7075836 0.22538564 0.20229521 -0.011735501 0.24002208 -0.3454011 -0.014920914 -0.35273856 0.7625686 -0.4679494 -0.018547395 -0.21274087 0.42132926 -0.6722595 0.05308448 0.4170633 0.750568 -0.0057965927 -0.25076953 0.16883045 0.31345996 0.40649405 0.52140623 0.0906763 -0.020189011 0.233536 -0.23575935 -0.003475011 -0.02128695 0.21442463 0.15836613 -0.4318539 0.17690262 0.110875085 -0.107254654 0.3808735 0.23696777 -0.091486074 0.21470174 -1.0984939 0.11167441 0.36349338 0.024237609 0.08120215 0.30658963 -0.1712339 0.09542604 0.21700525 -0.31187442 -0.30229697 -0.06886546 -0.5342125 0.008706256 0.4440764 0.3351639 -0.3009423 -0.29585093 -0.7588365 0.6888253 -0.20921311 -0.1286296 0.3763724 0.14295645 -0.6362226 -0.4003162 0.22120066 0.38514557 -0.111232616 -0.45249036 -0.013094381 -0.18296824 0.49116394 0.34384298 -0.9061961 0.21240844 0.3949882 -0.8217141 -0.47120577 -0.05229924 -0.02058381 -0.10028375 0.26853326 0.31351456 -0.10220921 -0.23444733 -0.4210002 0.13747355 0.25278106 -0.027357195 0.17047952 0.7247886 -0.5102992 -0.011108668 -0.22816148 0.4265126 0.45895237 0.30433783 -0.2644224 0.18378177 -0.24738765 0.36346176 -0.012646111 -0.33235297 -0.27947855 0.1944952 -0.027464354 -0.37158507 0.13319138 0.21063325 0.087154925 -0.24439783 -0.2188664 0.36412856 -0.69307345 -0.23747462 -0.0153593 -0.59466976 -0.18303533 -0.16890168 0.2411276 0.058519296 0.17945835 0.12469599
2014年度 0.16013063 -0.37324908 -0.17385496 0.72074115 0.94267976 0.18902501 -0.62711436 -0.15126576 -0.6890406 0.4166331 0.038014274 0.22203435 -1.0589882 -0.63761824 0.7146721 -0.45386404 0.9638479 0.5048012 -0.71177036 0.16703175 0.005639369 0.49749157 -1.2175771 -0.3359517 0.47246096 -0.8448218 0.8627394 -0.14274317 -0.14759548 -0.91477835 -0.21134484 -0.15993816 -0.49938968 0.013300694 -0.12975807 -1.0141553 -0.2973243 -0.385707 0.36947963 -0.2868966 0.22342469 -0.104164615 0.056930467 0.41444185 0.5527773 0.18878096 0.30022 -0.47112173 0.25700805 0.013141968 -0.33027247 0.06735055 0.11413186 0.32010564 0.16464719 -0.00571731 -0.27298933 0.6145544 0.51050365 -0.7935708 -0.13525034 0.064988226 -0.61341023 1.3362999 -0.34439656 0.63610286 -0.27454725 -0.0330787 0.1534478 0.22509782 -0.12912811 -0.21639259 0.09140176 0.73409444 0.07466024 -0.89140916 -0.07878713 0.19767272 -0.83442336 -0.08583463 0.025433319 0.21014184 0.37191173 -0.47104895 -0.61427045 -0.15786183 -0.29504323 -0.21873333 0.6871061 -0.22744195 -0.43454522 0.10361997 -0.92177767 -0.542983 -0.117815435 0.45547202 0.07494897 0.41262028 -0.49071932 -0.3310802 0.045106865 0.116016164 0.5133744 -0.074138544 -0.5821281 -0.0897303 -0.4530134 0.5711214 -0.4099457 0.010211961 -0.7598387 -0.63174725 0.5662029 -0.33341706 0.030843353 0.03831921 0.6332625 -0.60593385 0.27510807 -0.40383083 0.115873754 -0.021827683 0.4180532 -0.062098097 0.6544873 0.8867642 -0.18782942 0.85104233 0.100254856 0.958045 -0.1315768 -0.49653274 -0.6339119 -0.7874071 0.29239392 0.2355896 0.027083186 0.51757133 -0.30321875 -0.59455216 -0.08599351 -1.0602466 -0.23653589 0.2561965 -1.0521085 -0.13944754 -1.3358855 -0.60491216 0.23655887 -0.36417755 -0.30534956 -0.7176308 0.08345112 -0.05583967 -0.36262485 0.34087485 0.47680983 -0.30927372 0.10263779 -0.33987215 0.31036985 -0.36009392 -0.39804393 0.4584618 -0.5903638 -0.044340752 0.10340089 -0.5707945 -0.06488862 -0.5916247 0.16717829 0.27439398 -0.049971867 0.35616803 0.45627353 0.19931942 0.7122498 0.0070188055 -0.343765 0.14727779 -0.65635103 0.47825077 0.051208995 0.070002034 1.0914099 0.1481666 -1.0526314 0.5622481 -0.57740915 0.40483403 -0.3346611 0.16635141 0.33256307 -0.15380757 0.3031137 -0.88269114 0.23420702 0.8581394 0.019686611 0.053188656 -0.4618432 0.2829814 -0.6548695 -0.4676807 -0.49185082 0.48332214 0.61095995 -0.40771013 0.19908978 -0.1965359 -0.31406602 -0.17256117 0.40879935 -0.25524947 0.23533201 -0.25457156 0.1750369 0.75269246 -0.25659227 -0.47695863 0.110005446 -1.0093892 0.58572453 -0.12480834 0.6244555 0.033242453 0.071376294 -0.2785867 0.10430263 -0.71997404 -0.19558027 -0.57379293 0.06292229 -0.5083744 0.09531429 0.5359062 0.3632065 -0.018973099 0.3389152 0.10658834 0.3768013 -0.83613473 0.19565018 0.434655 0.085159235 -0.61774284 0.4003284 0.27406985 0.0043343534 0.7103234 0.13033958 0.48714295 -0.14919358 -0.12476656 0.39644104 -0.44131926
实现 -0.21436189 0.04681714 -1.4146308 0.88955903 -0.09756612 0.83614004 -0.4658859 1.5757161 -1.1654137 -0.088326775 -0.22546251 0.8085256 -0.30477577 0.6780054 -0.5734344 -1.3657368 -1.0806788 0.28867093 0.06340075 0.2367892 -0.033062402 1.0995493 0.67394435 0.27835065 -0.22973019 -0.28138077 -0.7433115 -0.26224032 0.8817513 1.4529848 -0.84777766 1.0432017 0.57897264 -0.001499951 0.074164726 -0.67363596 0.96428967 0.056295015 -0.9383299 1.1668122 0.34446692 0.5653981 0.3191064 -0.11830356 -0.2313685 0.4591639 0.1839431 -0.34492388 0.049086943 0.0841667 0.367218 -0.52838814 -0.18002577 -0.28373435 -0.15280119 0.14960703 0.21244869 0.6093275 0.35152078 0.09213134 -0.6654104 -0.96591717 -0.7519705 0.7696647 -0.8460091 -0.26422438 -0.006247468 -0.4108188 -0.48363185 0.079732984 0.2515475 -0.044238497 0.44534934 0.83634084 0.3167668 -1.1869674 0.03559342 -0.6027751 -0.5600923 -0.42642832 0.01830785 -0.37545276 -0.13830668 0.121045254 -0.38811862 0.28952676 0.3935185 -0.4178962 1.0352854 0.2324704 -0.8406475 0.28980976 -0.41268063 -0.31103408 0.3973979 0.053592686 -0.26935434 0.56148547 0.11486274 -0.11085151 1.3262466 0.4758817 0.2889836 -0.29707348 -0.4143568 -0.6088262 -0.5950828 0.7604916 -0.31526232 0.80432624 0.2110873 -0.38883585 0.19051516 -0.25069946 -0.28404912 -0.028619952 0.25350198 -1.5829829 0.30456766 -0.11066764 0.28669527 -0.07906774 0.031229194 -0.37159252 -0.35244876 0.5134807 -0.17337638 0.27061415 0.7766047 0.9646517 0.1372646 -0.24809162 -0.025317257 0.49304232 -0.61274 0.73866785 -0.5426989 0.70574284 -0.021905415 -0.24965313 0.052809842 -0.62890047 0.10327641 0.53166837 -0.5168304 -0.43654898 -1.007611 0.11502701 -0.87398833 -0.7613418 0.36381656 -0.33767766 -0.183596 -0.6406908 -0.20864567 -0.3893456 -0.2168257 0.6981939 -0.45405042 -0.20463155 -0.14026192 -0.46939382 -0.39993417 0.16822033 -0.291071 -0.0816575 -0.00068059046 0.6444035 -0.11184149 -0.5517751 0.42771903 -0.38940856 1.3336029 0.3255024 -0.7456175 -0.68926626 0.15428385 0.087146625 -0.21536072 0.022586355 -0.16864072 0.58097106 -0.30187443 0.2348124 1.4090753 -0.16668856 -0.11011941 0.24629535 -0.81398356 0.23121855 -0.30284032 0.35918105 0.47024179 0.6811793 0.47286808 -0.09843627 0.9854879 0.45211774 -0.21500048 -0.345193 0.19967127 0.6268455 0.10361027 -0.24284004 -1.2572066 0.18081667 0.71213233 -0.47672188 -0.038168218 0.42761746 0.5831245 -0.35143822 -0.08666333 -0.046709947 0.10372125 0.49135342 -0.22458448 0.18219614 -0.49680218 -0.186494 0.31528687 -0.45969626 0.64461565 -0.23535994 0.27778795 0.36852393 0.2038439 -0.007599831 0.35838172 0.0156080555 -0.26487133 -0.73064864 0.23582318 -1.372505 -0.40088668 0.73735034 0.14593135 0.1288296 0.050750338 0.65607244 0.44606283 -0.43925956 -0.51067513 0.29806796 0.08591931 -0.9598921 0.39586714 0.3750947 -0.25510445 0.09997894 0.18102147 0.6134469 -0.16589145 0.4148865 0.25272056 -0.83443385
营业收入 0.013973351 -0.042986516 -1.0633345 0.6688879 -0.025991473 0.7748819 -0.47236258 1.0834178 -0.9892848 0.011741827 -0.2104715 0.51524234 -0.41627753 0.4378617 -0.25638443 -1.0319333 -0.629475 0.36334386 -0.11238466 0.092384525 -0.08369084 0.8077362 0.2090173 0.09646742 0.0033506239 -0.24464677 -0.36747754 -0.10567273 0.47564307 0.63195854 -0.6942215 0.67740387 0.35159132 -0.019714508 0.00804142 -0.61022437 0.68698186 -0.04417883 -0.69371957 0.7411301 0.14743912 0.4275254 0.16789268 0.01039514 0.04533331 0.31630808 0.104148544 -0.47008604 0.067102656 0.08254878 0.29064175 -0.37951052 -0.20084983 -0.19576512 0.011039317 0.030544855 0.12369852 0.6292083 0.34211525 -0.17035823 -0.40043777 -0.5768945 -0.6624197 0.67092365 -0.6010334 0.02518537 -0.06646333 -0.26099694 -0.2516691 -0.047361277 0.13976854 -0.016180556 0.42227572 0.6871833 0.301969 -0.90554446 0.17033182 -0.4436693 -0.5377779 -0.28079692 0.12903823 -0.3135869 -0.0032418405 -0.027915055 -0.36338854 -0.045157805 0.18317391 -0.39323604 0.8966058 -0.05666356 -0.73751765 0.11965915 -0.520257 -0.23254429 0.113389194 0.02158213 -0.17550853 0.5644503 -0.03426248 -0.0884543 0.84567785 0.247105 0.34095722 -0.38281187 -0.36472243 -0.33755267 -0.2917936 0.631127 -0.30187002 0.52962613 0.061624177 -0.26455396 0.18744273 -0.28826934 -0.1961106 -0.11902408 -0.0055648945 -1.280682 0.29242036 -0.026430728 0.33955917 -0.087486014 0.04446839 -0.34732604 -0.2941392 0.4493935 0.030737773 0.3319658 0.52976024 0.83513826 0.06585455 -0.30971897 -0.17422074 0.27123412 -0.50160015 0.6609971 -0.32951248 0.40708128 -0.08424173 -0.19128513 0.1183735 -0.6943184 0.0909589 0.47918713 -0.41201508 -0.35947245 -0.78871113 -0.040427834 -0.56602526 -0.7214034 0.10581669 -0.26361096 -0.23114835 -0.38450563 -0.3591638 -0.24455748 -0.111697555 0.37052444 -0.21882294 -0.18488887 -0.18650445 -0.3966553 -0.52890193 0.10584517 -0.17687048 -0.15007488 -0.08324456 0.2936102 -0.23514327 -0.46977144 0.28911424 -0.29377338 1.0927044 0.32646975 -0.4074808 -0.53283685 0.055381764 0.053404868 -0.40200254 -0.05140627 -0.15827444 0.59220874 -0.111288816 0.24380478 1.1170888 -0.028925244 -0.23144616 0.16064514 -0.69181603 0.30142495 -0.15150094 0.16347039 0.3676724 0.5181234 0.42441735 -0.19692749 0.8072255 0.49455583 -0.24566862 -0.2464385 0.07569313 0.40271935 -0.016870612 -0.18201423 -1.0519063 0.08531327 0.668708 -0.4400961 -0.018506754 0.36108816 0.39620513 -0.12148737 -0.059280623 -0.024317654 0.16986196 0.3038342 -0.19006187 0.29098213 -0.173989 -0.1170768 0.1502528 -0.44680232 0.4504536 -0.19181122 0.35866594 0.30949166 0.21683681 -0.10914362 0.028974056 -0.13330646 -0.10238626 -0.45215157 0.15025386 -1.0430192 -0.16446403 0.6135723 0.14355658 0.042212594 0.15727943 0.4431076 0.43238124 -0.4026294 -0.3786763 0.19187425 0.11747427 -0.7673306 0.39326262 0.26564762 -0.09600289 0.22282507 0.12959705 0.3996339 -0.07861175 0.24201585 0.3408645 -0.7192193
净利润 -0.21480182 -0.015151272 -1.5471587 0.99771357 -0.027144883 0.93070203 -0.27871138 1.6265785 -1.1891909 -0.015734237 -0.39431855 0.93769294 -0.29455334 0.63196975 -0.57338417 -1.528179 -1.2750008 0.24198376 -0.11034331 0.5101868 -0.038814522 1.1848524 0.83805776 0.33871824 -0.39043608 -0.2509517 -0.7295338 -0.41882247 1.2635148 1.6326374 -0.8284319 1.2307138 0.96062696 0.1646547 0.009348881 -0.7968639 1.2794238 -0.02291755 -1.1149411 1.4663928 0.36266616 0.7074336 0.33031124 -0.4362759 -0.34649765 0.51620907 0.06245672 -0.19010356 -0.08641225 -0.1067231 0.32941893 -1.0390191 0.087942876 -0.27449077 -0.18121736 0.32699645 0.1512336 0.69980246 0.5128592 0.055329256 -0.59450924 -1.1663765 -0.9902737 0.8270011 -0.89293563 -0.34477943 0.04582189 -0.5639423 -0.38632205 0.26184738 0.15689021 -0.093592264 0.39856496 0.77309716 0.2405451 -1.2590979 -0.21303187 -0.64814276 -0.6074895 -0.55890447 -0.012835345 -0.23183803 0.08445763 0.049543362 -0.6034263 0.3201946 0.362648 -0.26205078 1.2355466 0.36859673 -0.83066016 0.52156913 -0.37734225 -0.48744282 0.7378591 0.29036266 0.0013343592 0.4492034 0.24857228 -0.12758125 1.5782369 0.64987737 0.30386978 -0.11909792 -0.43325263 -0.7962849 -0.7632513 0.7056722 -0.20449862 0.920294 0.23202473 -0.65102834 0.1985886 -0.5045969 -0.2521028 -0.071342014 0.5102467 -1.7373886 0.31269345 -0.13191944 0.22627573 0.05843795 0.061321497 -0.43445167 -0.24079953 0.64289075 -0.21681891 0.32520986 0.82947934 0.833565 0.06159923 -0.16786604 0.035538454 0.51063913 -0.83229184 0.726659 -0.5716791 0.7505692 -0.13292459 -0.29971987 -0.038178418 -0.508532 0.047436632 0.45752162 -0.45998096 -0.30690244 -1.1104324 0.0912658 -0.70469034 -0.4999795 0.4590594 -0.32896292 -0.2646003 -0.8541769 -0.16471368 -0.47349417 -0.24284188 0.59081274 -0.5230252 0.05068537 -0.09511671 -0.40993753 -0.28826368 0.07765576 -0.30936038 -0.00085137575 0.19172862 0.5987332 -0.18083385 -0.48072746 0.36652887 -0.33193886 1.238304 0.34248486 -0.5599228 -0.8997518 0.12550877 -0.009775561 -0.32258335 -0.04622918 -0.42511654 0.5096607 -0.61059767 0.20272028 1.0220424 -0.22100466 0.02664731 0.2849864 -0.75412905 0.022499574 -0.15730403 0.3067752 0.42709664 0.77986735 0.47976315 0.0036215198 1.070705 0.444759 -0.23815255 -0.16545428 0.057264075 0.6624698 0.027840093 -0.17853488 -1.2865919 0.29593885 0.5239577 -0.4976022 -0.040125776 0.5066541 0.6508253 -0.50769687 -0.05103016 -0.07780916 0.033797707 0.47288457 -0.35944846 0.30498 -0.5707122 -0.16492836 0.36276868 -0.43279994 0.74442786 -0.076480955 0.19813915 0.34220472 0.25078964 0.020519447 0.5909577 0.079344586 -0.29382703 -0.769142 0.21761364 -1.4670078 -0.4821798 0.7237395 0.1739486 0.15005602 -0.16708188 0.695755 0.2803906 -0.6127584 -0.65571964 0.2978917 0.09046384 -0.97239375 0.37234697 0.33190787 -0.20264168 0.0626021 0.24910551 0.5680286 -0.27285823 0.5652532 0.1627606 -1.1679534
2013年度 0.3942909 -0.32486963 0.061859082 0.5089464 0.90798634 0.22462563 -0.84432954 -0.38864577 -0.7465433 0.50627637 0.05230411 0.08556872 -1.1103677 -0.77771103 0.867397 -0.40456125 1.239109 0.5743865 -0.7342272 -0.025080511 -0.026042204 0.32029444 -1.4452258 -0.39934716 0.69823307 -0.84931713 1.0643882 0.046930812 -0.38505855 -1.4941461 -0.33635965 -0.29298684 -0.7026617 -0.10993247 -0.14945982 -0.8111613 -0.49713734 -0.46183816 0.5785088 -0.55606914 0.021851897 -0.30161262 -0.048839495 0.7490721 0.81796485 0.01780809 0.36831877 -0.5977264 0.47193015 0.20997901 -0.37466663 0.5458754 -0.07221893 0.24992315 0.3846738 -0.247965 -0.4229096 0.65996575 0.43321604 -1.0327631 0.005531113 0.47589687 -0.4958423 1.3956697 -0.23477106 0.89313984 -0.32574704 0.1600223 0.23480622 0.018101465 -0.17006488 -0.29778916 0.07762943 0.77856636 0.14726052 -0.8676521 0.08442176 0.3710413 -0.9089883 0.12623599 0.10904065 0.2972517 0.39848644 -0.622111 -0.5139021 -0.31688288 -0.46264875 -0.39813277 0.48143065 -0.44398537 -0.29912153 -0.17080988 -1.0311797 -0.52559155 -0.44276956 0.35168743 0.1305027 0.52092105 -0.7055568 -0.32045045 -0.31633678 -0.11060343 0.50343764 -0.20100391 -0.5878881 0.19204107 -0.31003037 0.5959914 -0.5173815 -0.23846215 -0.99791086 -0.5186625 0.5754776 -0.2798178 0.18253164 0.007735188 0.37734243 -0.41099107 0.19771318 -0.36655727 0.19306768 -0.063522354 0.4277838 0.0054513444 0.7196278 0.92138934 -0.03416191 0.98845196 0.08381065 1.0034529 -0.2993362 -0.6310589 -0.7818745 -1.0347825 0.3785765 0.20223063 0.17277057 0.29138455 -0.30073476 -0.5835999 0.014489201 -1.3096118 -0.27362677 0.34774417 -1.0931164 -0.23226446 -1.2332647 -0.8244175 0.38679567 -0.5155201 -0.5643957 -0.7793308 0.14609398 0.19109939 -0.61397916 0.5416534 0.7425893 -0.38195333 0.4238407 -0.6053602 0.3261622 -0.41308075 -0.70262045 0.51295984 -0.65889907 -0.17426434 -0.035670586 -0.90129185 -0.08001914 -0.6121124 0.19066219 0.41263607 -0.106391124 0.29298303 0.65778047 0.51710325 0.8022623 0.08536113 -0.38957438 0.14144254 -0.6750089 0.44107845 0.31222057 0.08642328 1.2436714 0.3035222 -1.2315463 0.57306457 -0.6116158 0.730551 -0.4634046 0.11395502 0.38540438 -0.373198 0.33309683 -1.1513894 0.03166369 1.0090916 0.15555467 0.05415489 -0.4739033 0.17336254 -0.7858689 -0.49526396 -0.49137244 0.44465166 0.77647066 -0.3975886 0.25640893 -0.23522149 -0.45964953 0.06198694 0.36917037 -0.31057414 0.36405408 -0.3945326 0.27972558 0.923062 -0.07249824 -0.48020163 0.005520129 -1.2404606 0.45073166 -0.25212535 0.8006873 0.0404742 0.08519438 -0.4386784 -0.2752896 -0.9352206 -0.16350923 -0.38734442 0.06526389 -0.23296115 0.27547827 0.5174837 0.29106054 -0.1238896 0.5129116 -0.066864625 0.5007109 -0.8417709 0.3393318 0.45481616 0.08139704 -0.62919486 0.44987828 0.2391349 0.102233686 0.9275273 0.051753968 0.50994426 0.022533366 -0.32089037 0.41692787 -0.23797543
总资产 -0.002602528 -0.13945669 -0.83783215 0.5461703 -0.10748661 0.46233392 0.42840293 0.58923817 -0.21686098 -0.16054633 -0.29972592 0.41247037 -0.035052396 0.4118102 -0.022395957 -0.58203226 -0.73882186 0.31622142 -0.40535232 0.46527344 -0.017725209 0.6757508 0.27768597 0.1724523 -0.5298389 -0.12270352 -0.14036646 -0.32231283 0.73457617 0.6258901 -0.07072806 0.4734546 0.8423619 0.37039825 0.075641796 -0.68864906 0.8609662 0.114971116 -0.81954867 0.9158194 0.02792936 0.39579523 0.073801965 -0.4352123 -0.30703795 0.22643875 -0.11259761 0.044236727 -0.35352153 -0.0043173204 -0.05559659 -1.1196771 0.3636913 -0.16159502 -0.124833375 0.5026521 0.015870348 0.57952636 0.3222845 -0.23509695 0.09917284 -0.7918542 -0.6711028 0.13674074 -0.49115837 -0.008376133 0.15093657 -0.41431677 0.11122899 0.32709524 0.049389172 -0.05824354 0.40246385 0.26284268 -0.15893891 -0.43952057 -0.30546433 -0.6580294 -0.2343859 -0.37830803 -0.07044898 -0.089725845 0.32827792 0.062445376 -0.45135486 -0.027682846 0.048281353 0.18358758 1.052794 0.20793831 -0.60590434 0.3263248 -0.14293742 -0.21003851 0.57006633 0.26649305 0.24141182 0.1649743 0.3155401 0.23037584 1.0898584 0.38632065 0.030272007 0.08521251 0.019951563 -0.66367877 -0.4512403 0.32030806 0.07319518 0.4210899 0.16875432 -0.54470307 0.27471823 -0.52792305 -0.122272566 -0.40573952 0.19586848 -1.2508128 0.2408306 -0.00038977442 0.26336932 0.12609671 -0.029378586 -0.40415278 -0.22346899 0.18651082 -0.022497755 0.15768155 0.6304003 0.52734756 -0.25954884 0.114035234 0.13588738 0.80726105 -0.8273006 0.62798405 -0.34655368 0.4111339 -0.35745797 -0.03370869 -0.05985639 0.23336579 -0.15992291 0.10970276 -0.14533085 -0.08266826 -0.77527314 0.015217412 -0.2609757 -0.0015361267 0.21394543 -0.05309086 -0.1591161 -0.50822 -0.03264578 -0.31651086 -0.22948052 0.17824377 -0.30084428 0.22527146 -0.3371458 -0.35978866 -0.24648868 0.0889663 -0.19932336 0.053206883 0.21729052 0.30872786 -0.16291048 -0.044418365 -0.012153824 -0.18772888 0.42583987 0.34997967 -0.17011413 -0.8720434 -0.22736874 -0.02519574 -0.6121184 -0.24247876 -0.3071231 0.35342264 -0.5755649 0.05899413 -0.030159857 -0.046816852 0.3559862 0.21591973 -0.5514969 -0.23310122 -0.20429838 0.27326474 0.21713689 0.62784547 0.47917935 0.11437656 0.60699826 0.31966737 -0.23269305 0.21779472 -0.111247435 0.09583224 -0.10334719 -0.087600045 -0.7040272 0.21385483 -0.14651035 -0.2685017 0.3339535 0.32677126 0.3128384 -0.32903 -0.09664557 0.14120863 -0.019121058 0.5689551 -0.46697775 0.21748427 -0.4869219 0.11166842 0.3143524 -0.33942014 0.29365945 0.19381106 -0.117097765 0.23182419 0.16277842 0.07388657 0.027347445 0.3674546 0.09267775 0.015791805 -0.11661073 -0.85579085 -0.20620567 0.16409722 0.022029841 -0.04707754 0.015787609 0.1612926 0.12461481 -0.40734142 -0.79020846 -0.19306785 0.015004315 -0.43007672 -0.18605283 0.032582443 0.21182744 -0.36119583 0.060167808 -0.06706832 -0.026258217 0.4776738 0.033501647 -1.1400667
比例 0.51685286 -0.2616361 0.032588735 -0.052681588 -0.21191446 0.61617625 0.7753513 -0.39521515 0.40640098 0.00015580155 -0.36338446 -0.20170708 -0.042757776 0.14810021 0.8008894 -0.16653259 -0.014424842 0.4707292 -0.9857963 0.6568544 -0.03731232 0.30914614 -0.77213037 0.0048285136 -0.42274827 0.00019529318 0.90902084 -0.15506892 0.3230498 -0.93787146 0.17693895 -0.09370496 0.685725 0.7002752 0.18731977 -0.7530938 0.4048872 -0.038027264 -0.45916966 0.088532485 -0.622914 0.10590552 0.02436193 -0.3083497 0.13265294 -0.27454555 -0.47947043 -0.06717144 -0.30031058 0.34820122 -0.55141205 -1.2273492 0.5016159 -0.23070154 0.3553039 0.2445927 -0.39946115 0.6700605 0.5465684 -1.1167679 1.02805 -0.11229344 -0.73267746 0.063646354 -0.1459287 0.8281644 0.15963721 -0.16585381 0.41697425 0.066954456 -0.1398919 -0.19528851 0.2341319 -0.15819673 -0.3699503 0.031625405 -0.04222698 -0.5878736 -0.19685951 -0.23138843 -0.068183556 0.20720592 1.0337089 -0.42427477 -0.40513542 -0.9717423 -0.43488112 0.40570623 0.7698171 -0.2812326 -0.3920033 0.08847263 -0.37571526 -0.36713496 0.115977354 0.3844996 0.91454726 -0.025616564 -0.114629395 0.7147936 0.6629649 0.026651828 0.02914388 -0.056643475 0.10714991 -0.49788854 -0.45428538 0.0055653253 0.17106745 -0.11074276 -0.27031803 -0.50689 0.20131536 -0.9200795 0.045965765 -0.80226004 -0.3820668 -1.0463822 0.011671269 0.11980952 0.43386108 0.034912646 0.18544692 -0.44488966 0.043027822 0.22626631 0.38028446 0.5315368 0.5638165 0.17294651 -0.8821566 -0.110767186 -0.111832775 0.72117907 -0.9840534 0.7399191 -0.08598983 -0.23276837 -0.75569177 0.052590437 0.26502833 0.18969396 -0.16447388 0.04970953 0.1709607 0.10829954 -0.59903663 -0.28614396 0.59914154 0.3131866 -0.22105035 0.15166336 -0.17018552 -0.16770306 -0.5897016 0.11954374 0.21103938 -0.4794994 0.6480109 0.23154663 -0.3725226 -0.25594842 -0.75210965 0.24003439 -0.49877617 -0.0408474 0.19067577 -0.58235294 -0.3420429 0.23045634 0.07448765 0.51788235 -0.13630182 0.42679057 0.7294079 -0.44325447 -0.19640057 0.20848858 -1.289947 -0.69094086 -0.33902147 0.3893221 -0.44885737 0.10137952 -0.9855157 0.27887264 0.39565825 0.2400562 -0.35678974 0.063399255 -0.49535233 0.14190184 0.2998242 0.42149636 0.64180195 -0.2068626 0.15564077 0.42456236 -0.0047425446 0.8516741 -0.23972136 -0.1940545 -0.7924142 0.062236656 -0.5074194 0.24497515 -0.3981748 -0.023613043 0.67927456 0.22579521 -0.008902026 0.19136898 -0.2893944 0.045425862 0.40620553 0.31291264 -0.7839043 0.7568578 -0.284537 0.43168518 0.00042821086 -0.70581996 -0.17828816 0.43701112 0.17449588 0.29079562 0.20068108 0.053099293 -0.84833425 -0.022276852 0.4688664 0.8189 -0.080116235 -0.038232047 0.25923806 -0.1943347 -0.02055166 -0.37975413 0.13794124 -0.10711788 0.08440585 -0.39823994 -0.9315757 -0.62029237 0.054113563 -0.003872514 -0.347204 -0.46922952 0.78043526 -0.22912759 0.1115397 -0.56176233 0.35814512 0.25846314 -0.17566082 -1.1496367
增加 -0.47828376 0.39481923 0.14538394 -0.1736145 -0.13335098 -0.6555164 0.74220246 0.3384549 0.68768936 -0.81812334 0.40712723 0.46589512 0.9203325 0.11236483 -0.16801873 0.10245506 -0.25048903 0.04166925 0.061924703 0.15011835 0.3616987 0.3882523 1.006317 0.56401646 -1.3358157 -0.016552083 -0.21558993 -0.45216992 0.85610455 1.212401 0.46339574 -0.013847575 0.5718676 0.12545927 0.4549934 0.63276047 0.01566794 0.67724115 0.4042772 0.44668093 -0.094667196 -1.0299605 0.18788376 0.63601804 -0.4639663 -0.7317144 0.63929296 0.76203245 0.29283568 1.2851833 -0.7992558 1.1285578 -0.11416744 -0.7450071 -0.4688969 0.19058861 0.17539401 -0.11893146 -0.5630173 0.010157302 0.4633689 -0.5299395 0.337543 0.053310294 -0.38198367 -0.34170836 0.028274601 -0.05736554 0.1546162 1.06187 0.14589772 -0.4977566 -0.70967346 0.87229306 -0.76598597 -0.34806284 -0.8657365 -0.15380922 0.4086902 0.14415286 -0.4555542 1.1894248 0.15292715 0.29382673 -0.02133428 1.1371934 -0.18930048 0.74083275 -0.23575698 0.7049851 0.31812367 0.011234265 0.52970624 -0.09329536 0.25559387 -0.0041194204 0.115571246 -0.636083 0.27887234 0.39041218 0.31516865 0.21236993 -0.84467846 0.6088737 0.39771396 -0.36378998 -0.7740146 -0.12615669 0.19486962 -0.3849159 -0.21675432 -0.22336227 0.3767316 0.5543189 0.33434123 -0.13230363 0.61390793 0.39741978 -0.37046432 -0.24726169 -0.32259083 0.15331623 0.17846352 0.25449806 0.25582185 -0.37340623 -0.5606075 -0.12867332 0.2021118 0.15202709 -0.4775445 0.48073035 0.53545684 0.83140177 0.43562338 0.02709715 -0.07874329 0.5207729 -0.17285624 0.005412303 -0.49679902 1.1116518 -0.6062411 -0.13789898 -0.35425675 0.28659597 -0.70703036 0.11167732 0.08351622 0.8953705 0.1955584 -0.27906433 0.35506743 0.195758 0.73491335 0.4357965 -0.037130155 0.27468306 -0.06557018 -0.27181762 0.0057290774 0.027953614 0.546115 0.15234177 -0.38593662 0.31079364 0.16775104 0.23789282 0.5742835 0.2808287 -0.1704175 0.060977355 -1.1316899 0.05485967 0.11254958 0.008228836 0.10265163 0.2802138 0.2563995 0.26165223 0.30506286 -0.48784494 -0.30907318 -0.19964841 -0.39795744 -0.11580031 0.45985758 0.30947995 -0.29927722 -0.5725191 -0.7225629 0.78522605 -0.2928908 -0.21783918 0.2912327 0.30568573 -0.6839701 -0.57922 0.24477936 0.24059187 -0.006145691 -0.4148124 0.22306217 -0.26064438 0.6489485 0.4060978 -1.0234054 0.3322263 0.3477767 -0.939299 -0.40013814 -0.2695564 0.07558991 -0.063112974 0.12102193 0.4236885 0.032648373 -0.5539838 -0.56311226 0.008076605 0.45033908 0.16203938 0.2997045 0.6681223 -0.7719089 -0.13629617 -0.3375367 0.5597342 0.8580386 0.60508025 -0.39404613 -0.0030044415 -0.3095545 0.29720256 -0.1917449 -0.3279348 -0.3486916 0.37423557 -0.10804806 -0.33343723 0.016955657 0.29937318 0.16062337 -0.09732075 -0.26608574 0.3287553 -0.86371 -0.116669394 -0.18602267 -0.8226991 -0.2916791 -0.023071744 0.15921439 0.120082065 0.084576845 0.2993255
主要 -0.21968506 0.46906674 0.31024736 -0.47400254 -0.26377764 -0.44964725 0.32443082 0.2150054 0.44293582 -0.67820066 0.46813047 0.19588113 0.8275566 0.14529686 -0.25843844 0.09723641 -0.09543366 -0.008525929 0.24113847 -0.2892965 0.23376349 0.11357384 0.84124243 0.3994355 -0.880964 0.12679397 -0.25886932 -0.09664769 0.2944969 0.6543937 0.21336234 -0.124499194 0.1047 -0.11676846 0.3934315 0.871579 -0.32216164 0.6009206 0.5341042 -0.04590406 -0.23740423 -1.0327644 0.07331158 0.90235674 -0.09998328 -0.76412475 0.5585257 0.34920484 0.4910849 1.2561189 -0.5647242 1.5853438 -0.4719522 -0.683669 -0.20053025 -0.2204427 0.19582465 -0.16498744 -0.6671446 -0.05147174 0.4345956 0.0062721134 0.5344677 -0.10786502 -0.14220302 -0.08010025 -0.06274251 0.18664305 0.09475088 0.52476895 0.12407874 -0.3140711 -0.60838896 0.7310728 -0.45777157 -0.12891668 -0.29849973 0.044725955 0.4093752 0.33027402 -0.22857249 0.9748992 -0.03413234 0.17259023 0.21325088 0.7480752 -0.21279126 0.40661973 -0.49804553 0.31843624 0.4046524 -0.32543316 0.38391638 0.079612635 -0.31768462 -0.3080678 -0.06569754 -0.43759683 -0.08269255 0.31751433 -0.24253106 -0.08087311 -0.659912 0.17020012 0.2718743 0.077289194 -0.25249466 -0.12353262 0.030618006 -0.5287239 -0.26614833 0.21126871 0.20672655 0.6936646 0.27299368 -0.032356143 -0.021148466 0.6742324 -0.4254659 -0.09959749 -0.1192394 -0.1047535 0.14121984 0.30540735 0.09433073 -0.44071233 -0.31348616 -0.095506705 0.021551732 0.14643295 -0.38795006 0.25328875 0.3017761 0.48260334 0.65628606 -0.025204277 0.09888828 0.15834998 -0.013065413 0.11074496 -0.18894339 0.7138089 -0.45694694 -0.02897237 -0.24898896 0.0011920561 -0.26178816 -0.03009586 -0.017034862 0.43065953 -0.059785843 -0.17742501 0.4086961 0.45910734 0.29765967 0.50066316 0.10599861 0.27768368 0.2876193 -0.5847475 -0.0461558 0.030970618 0.17612392 0.25854856 -0.31955117 0.09003534 -0.08721754 0.08561345 0.52185917 0.21624854 -0.040618766 0.10566922 -0.8408388 -0.016752286 -0.023180133 0.45150736 0.11636594 0.40218356 0.40949422 0.20862852 0.5227002 -0.3634236 0.25290918 -0.120553404 0.102185674 0.07015808 0.14853354 0.17232056 -0.21912527 -0.122642264 -0.7591356 0.59007996 -0.1245609 -0.38037 0.1579944 0.036341302 -0.7953582 -0.36753544 0.31018993 0.03737835 0.21134567 -0.37013584 0.1382364 -0.25161973 0.5639316 0.12758017 -0.5435885 0.29337686 0.30795878 -0.7820916 -0.43253312 0.09923302 -0.03253388 -0.012584766 0.26329744 0.2860194 0.19194983 -0.5037548 -0.2141199 -0.003761031 0.2535558 0.07348371 -0.0038900727 0.22560038 -0.47531652 -0.03322275 -0.23563248 0.3579401 0.002857801 0.34333467 -0.14440064 0.28458154 -0.20327024 0.5291944 0.049844652 -0.29999974 -0.3208896 0.116606854 0.2895714 -0.34729198 0.1030073 0.41582078 0.24144167 -0.13520092 -0.17128241 0.24969652 -0.6678913 -0.03901708 -0.014592816 -0.49058267 -0.31026465 0.04041773 0.28299353 -0.16243783 -0.17525676 0.58636993
2014年 0.26569748 0.5177339 -0.01990059 -0.58795893 -1.003364 0.6963514 -0.4168647 0.89345396 -0.3797786 -0.48876566 0.37988493 -0.12490238 0.36628932 0.95516044 -0.39386562 -0.6210335 -0.48726463 0.24372958 0.37249783 -0.6604862 -0.130755 0.30672657 0.3705341 0.22915463 -0.160032 0.1731617 -0.1983296 0.52961624 -0.3240088 -0.05481078 -0.7352655 0.081132 -0.38050592 -0.32579944 0.51277643 0.35592645 -0.36366987 0.52946055 0.10100611 -0.49967232 -0.5499251 -0.52143794 0.18950808 1.0306042 0.41264573 -0.49981368 0.1888457 -0.60459507 0.6264093 1.3023312 -0.08082934 1.437436 -0.98626846 -0.724853 0.48627946 -0.96768963 0.019504167 0.31172127 -0.16845861 -0.46737152 0.32078215 0.514527 0.2468094 -0.057036474 -0.28750035 0.6396619 -0.1504277 0.28641555 -0.65032 -0.60379666 0.30867168 -0.07024542 -0.022088284 0.59656495 0.2840646 -0.35540807 0.99683 -0.519502 0.004861845 0.18063304 0.14276874 -0.12394235 -0.17714387 -0.12132884 0.574121 -0.5329927 0.08839604 -0.54773015 -0.479417 -0.49488497 -0.103094704 -0.80097425 -0.23295721 0.002347492 -1.1927407 -0.9486449 -0.30283958 0.31360373 -0.59400773 0.48723504 0.03337119 -0.44317997 -0.28174543 -0.9828894 -0.28026307 -0.05802412 -0.23383458 0.3512082 -0.49083343 -0.2868926 -0.26495296 0.6951582 -0.11951575 0.32086155 0.13001725 -0.093531296 -1.5418181 -0.49273217 -0.43957913 0.23984316 0.6747792 -0.6763466 0.18822175 -0.08832796 -0.4484378 -0.15924767 0.25836262 0.38720065 0.48998174 0.3860759 -0.56045943 -0.38935545 -0.031211775 0.79898447 -0.13570656 0.80105 -0.096367955 -0.4192562 0.13947406 0.18371381 0.6710898 -0.4017472 0.12853046 0.576335 0.19570644 -0.4362582 0.22273694 -0.005822618 -0.5527872 -0.77820086 -0.39425737 0.07919795 -0.008214549 0.49476942 -0.8809824 0.38003471 0.34236702 0.6867601 1.1637102 -1.0568522 -0.4295092 -0.12900981 -1.0988427 0.14554527 -0.109346576 -0.55281633 -0.69038993 0.009457248 -0.014144442 0.013784056 0.7037599 0.14665689 1.0804747 0.15303373 -0.3122016 0.40308046 -0.007560066 0.654447 -0.4730848 -0.17516927 1.0956129 0.44794425 0.7529449 0.35548347 1.1577955 0.21475461 -0.029066341 -0.11866484 -0.5890027 0.98388165 -0.9264051 0.19253936 0.36726135 0.1449078 0.4021378 -0.20906861 0.10235579 -0.08606255 0.0060029794 -0.16875261 0.8332732 0.100270234 -0.11898154 -0.08144674 -0.77917534 -0.40640628 0.759064 0.05649269 0.013669748 -0.100136966 0.28383985 0.9881298 -0.5671321 -0.1575898 0.98485345 0.39134675 -0.23322563 -0.08698745 0.27571395 0.24474278 -0.07208833 -0.4103132 -0.29990876 -0.33486152 0.45677698 0.5144147 0.10101043 0.13780856 -0.8430806 -0.32374072 -0.041691545 0.44687888 0.40599838 0.2270843 0.42833552 0.34785566 -0.40226007 0.10923683 0.23725867 0.32067177 0.7282875 0.58565336 0.16460153 -0.29494026 0.036343277 -0.15725435 0.16290346 -0.30770594 -0.080692716 0.23826604 -0.051481877 0.12062761 0.66057134 -0.17268065 0.68077815 0.62778556
( 0.42424187 0.34350452 0.01785197 -0.4775578 -1.3843231 0.78761804 0.6130102 0.53909826 0.38931444 -0.78288347 0.25930497 -0.2626822 0.5465044 1.1993695 0.23897813 -0.36595678 -0.5563793 0.59587127 -0.23644099 -0.10587324 -0.15639247 0.46488628 -0.13207598 0.18241802 -0.85314834 0.12954363 0.3891136 0.492664 -0.041805796 -0.48406777 -0.12567903 -0.15947874 0.17930491 0.14656466 0.8806767 -0.37923825 -0.14813466 0.77024674 -0.13046199 -0.28030586 -0.9689209 -0.5533632 0.22716129 0.8304428 0.09284362 -0.6793185 0.0157999 -0.37357587 0.071732864 1.6076279 -0.62409014 0.578621 -0.39818662 -1.008856 0.6189848 -0.55808145 -0.27123845 0.69987726 0.10377753 -1.0721577 1.2193561 0.22806579 -0.18732072 -0.3124474 -0.5374668 1.0894791 -0.0963685 0.17356549 -0.3594257 -0.3092225 0.37638322 -0.21142578 0.240236 0.55315006 -0.27344766 -0.20705768 0.72774005 -1.3692046 0.009464024 0.009706438 -0.07400384 -0.04484815 0.49500942 -0.08866164 0.39085415 -1.0199779 -0.09795405 0.057827387 0.058862094 -0.5995651 -0.31155303 -0.78258836 -0.2804299 -0.27868465 -0.9602888 -0.64608467 0.2585995 0.26409787 -0.37641987 1.1791831 0.8829994 -0.3446872 -0.4764495 -0.8400566 0.1346439 -0.9614483 -0.9857564 0.22871344 -0.30653763 -0.42435905 -0.40664107 0.14448771 0.12888981 -0.37343124 0.18962462 -0.83311325 -1.7978419 -1.5716864 -0.37702668 0.3968389 1.0004636 -0.69787973 0.18467456 -0.41135538 -0.45896748 -0.29939643 0.44152188 0.7056439 1.164278 0.67276007 -1.2943623 0.0029595946 0.14064927 2.033451 -1.1567723 1.4675665 -0.44043088 -0.35821053 -0.42886317 0.25459504 0.73083967 0.2843874 -0.24622196 0.42807126 0.56539476 -0.11897066 -0.21411352 -0.08187451 -0.4733078 -0.39330024 -0.5288038 0.29679686 -0.13276002 0.41490358 -0.9857296 0.45012015 0.35107246 0.47078252 1.3488746 -0.8120466 -0.8830034 -0.32926092 -1.4253333 0.07085691 -0.104745686 -0.46973926 -0.59413016 -0.16028586 -0.06963023 0.4499282 0.6118587 0.4178206 0.9016877 0.5709601 0.123898886 -0.2038363 -0.29515746 0.6362229 -1.5298179 -0.6752358 1.128907 0.6285178 0.24316254 0.2896404 -0.006090161 0.2420056 0.577365 -0.040040296 -0.9680099 0.7828538 -1.3692238 0.46042216 0.4589295 0.4541283 1.0864377 -0.080285534 0.4983626 -0.08079025 -0.21023342 0.7249357 0.6873842 -0.28421295 -0.6322625 -0.080528334 -1.2739795 -0.3558987 0.16144517 0.31380188 0.62789845 0.010097222 0.31063208 0.9498591 -0.82071126 -0.061100516 1.2322516 1.0201341 -0.9844432 0.25365028 -0.20432484 0.7411617 0.15936036 -0.93334407 -0.59786916 0.06832152 0.21772759 0.6858112 0.09368455 0.31365383 -1.0315561 0.15054905 0.10286829 1.0950632 0.26483887 0.25953004 0.66685104 0.15207376 -0.6784159 0.016740123 0.084421284 0.07339142 0.8308468 0.5581347 -0.5466874 -0.94328815 -0.15174608 -0.013300316 -0.34197232 -0.81490225 0.34674722 -0.3262654 -0.0048200404 -0.54268265 1.080514 0.14959656 1.1576362 -0.19883637
) 0.5635992 0.27854264 0.10060319 -0.53833544 -1.270909 0.90918916 0.6001625 0.4311728 0.37328961 -0.6366157 0.16049232 -0.31453413 0.49520633 1.1124018 0.3674637 -0.47605473 -0.5184336 0.6204432 -0.39279526 0.008573447 -0.10624198 0.5029348 -0.275506 0.20247054 -0.89707 0.16970651 0.51298356 0.42473632 0.07618277 -0.68446743 -0.20264696 -0.12776738 0.26259202 0.24176225 0.8311328 -0.43342805 -0.058282748 0.6482021 -0.11946801 -0.2593776 -1.0905885 -0.5083765 0.20982027 0.7894876 0.16791765 -0.75060344 -0.056392312 -0.4233295 0.14483157 1.6320543 -0.7153556 0.4668097 -0.36066973 -1.073065 0.66306067 -0.5308095 -0.33287188 0.74885756 0.17771436 -1.2919364 1.3434196 0.20704623 -0.3177319 -0.10974224 -0.47668886 1.2402896 -0.058903355 0.19868188 -0.30031115 -0.28441122 0.26538405 -0.30314043 0.18924734 0.5711543 -0.27820152 -0.23280543 0.6559334 -1.3069781 -0.07007932 -0.079739 -0.074562624 0.048403423 0.70678806 -0.24102816 0.26172203 -1.1375911 -0.23487774 0.12388475 0.15270814 -0.6564163 -0.35989082 -0.7024533 -0.4254642 -0.30706534 -0.9197721 -0.45450464 0.4451348 0.26230523 -0.4154744 1.2441422 0.79964954 -0.40011808 -0.41915956 -0.8140691 0.11255254 -0.8818154 -0.95682114 0.18159635 -0.2974441 -0.43973625 -0.47555602 0.101866156 0.15496008 -0.47433412 0.21687524 -0.88245225 -1.7373523 -1.4854373 -0.37773442 0.4400252 0.9250558 -0.630891 0.1934747 -0.38328794 -0.4029256 -0.18559876 0.5409307 0.77850795 1.035086 0.52654684 -1.3046322 -0.14534596 0.07984996 1.8750386 -1.1461992 1.4596831 -0.3715753 -0.44766855 -0.53692806 0.22339503 0.7014952 0.1663724 -0.2757412 0.39412445 0.5656808 0.097905464 -0.21961935 -0.1278069 -0.17741752 -0.3157477 -0.57615054 0.2986573 -0.21541081 0.41212037 -1.049947 0.51481247 0.36302418 0.23951584 1.3924991 -0.7000253 -0.7827728 -0.24969369 -1.4272802 0.011307531 -0.08198944 -0.48427364 -0.5592503 -0.39055037 -0.18766052 0.47017378 0.5945302 0.45398766 0.82394326 0.5734569 0.34796688 -0.26561475 -0.32635856 0.57177126 -1.7322392 -0.6481144 1.0224481 0.6771205 0.17279546 0.3107581 -0.16510013 0.27689198 0.52627957 -0.0318258 -0.8660165 0.7484736 -1.2330201 0.36629042 0.41756883 0.50512654 1.0893381 -0.13208386 0.41564873 -0.0111575 -0.14757505 0.80544305 0.55994385 -0.32649204 -0.73411155 0.008846836 -1.1633978 -0.29390317 0.08850207 0.30600306 0.5854881 0.0053308066 0.22569121 1.0184748 -0.7774351 -0.12359173 1.260059 0.8185659 -0.9912518 0.3837235 -0.13844524 0.79931587 0.04036477 -0.94795704 -0.57102275 0.20259474 0.33667397 0.6108527 0.12364273 0.27279124 -1.0059006 0.00074141216 0.11300903 1.054253 0.270679 0.28042084 0.71183234 0.14350884 -0.62385744 0.078302145 0.038131464 0.03661681 0.8144235 0.4792259 -0.46063468 -0.96793365 -0.1692027 0.050746813 -0.28518283 -0.9163153 0.3540024 -0.18494181 0.053262856 -0.5950648 1.1133286 0.13299458 1.2137847 -0.22781491
； -0.21186106 0.116562776 -0.9156976 0.48622543 -0.2706809 0.47109932 0.15690753 1.1588963 -0.30462542 -0.30280823 -0.11852326 0.61632323 0.13306952 0.5616194 -0.25137073 -0.75558317 -0.88135856 0.26119488 -0.07894559 0.34835297 0.10630825 0.8770742 0.6380747 0.36856017 -0.6984633 -0.12623312 -0.4252696 -0.31930745 0.87097466 1.1721728 -0.29301825 0.57658446 0.77512634 0.18700872 0.25759348 -0.4006907 0.77963984 0.22993961 -0.64949024 0.98294425 0.079742104 0.15568109 0.2633171 -0.10974815 -0.40645137 0.054401226 0.16278379 0.035220258 -0.038125575 0.40505344 -0.035009768 -0.41248423 -0.025460446 -0.49540344 -0.21641512 0.25109768 0.23330086 0.4906869 0.118837416 -0.0666759 -0.06465168 -1.0167913 -0.572746 0.40614045 -0.6887952 -0.21989702 0.103006475 -0.3496031 -0.21213932 0.40202644 0.18815368 -0.16398528 0.09747975 0.7110687 -0.18059091 -0.84051496 -0.26615134 -0.65653473 -0.16047794 -0.29933542 -0.13580728 0.1392758 0.19769448 0.1604269 -0.2838188 0.36747545 0.16246288 0.0825689 0.757646 0.3636628 -0.49083352 0.2558725 -0.086638734 -0.28629756 0.47513452 0.105157696 0.10350197 0.06151553 0.20829266 0.21317466 1.223525 0.46531862 -0.0918969 -0.015489162 -0.06827401 -0.73294246 -0.7454579 0.37888095 -0.08389019 0.45031318 0.105439916 -0.38005257 0.20905523 -0.21227475 -0.10308904 -0.19726811 0.25730392 -1.1561078 0.08345878 -0.11597122 0.15579969 0.0068780947 0.010803422 -0.30321494 -0.186777 0.18514909 -0.1895847 0.14259595 0.6812566 0.6351878 -0.23489095 0.04843219 0.239634 0.8565507 -0.5975379 0.6388159 -0.46861026 0.5470666 -0.21060582 -0.10416107 -0.0642645 0.09182197 -0.14692739 0.2661023 -0.21915787 -0.13867472 -0.8035647 0.12816425 -0.45183024 -0.11936887 0.3066715 -0.18326956 -0.13701522 -0.42180115 0.034898497 -0.117425576 -0.17882052 0.45062307 -0.21735482 -0.051865686 -0.21793109 -0.3065468 -0.15453225 0.10713519 -0.32784238 0.04737456 0.10675762 0.48103923 -0.06450297 -0.10807154 0.26282376 -0.17042914 0.5259411 0.3288933 -0.3461918 -0.6396842 -0.0055629257 0.13775137 -0.38003102 -0.13252422 -0.050660904 0.27757138 -0.50632817 0.15559703 0.3061966 -0.1348446 0.3458832 0.17200226 -0.6319816 -0.15114814 -0.3448909 0.39016256 0.101678886 0.5543262 0.5430947 0.26177347 0.58552176 -0.077229835 -0.20560387 0.032527804 0.09316167 0.118846886 0.16566908 -0.11092772 -0.6679349 0.19565219 -0.05298478 -0.14054419 0.09387438 0.07488005 0.359332 -0.16155872 -0.0839104 -0.03997645 0.1525066 0.51146644 -0.37654498 0.011711282 -0.42038542 0.08891334 0.27187973 -0.1054293 0.42173418 0.29058066 -0.07457544 0.20484923 0.11177788 0.21151584 0.52062994 0.31172612 -0.22695574 -0.26414728 0.09187332 -0.78189754 -0.24960081 0.30145672 -0.06609717 0.20217276 -0.1672317 0.28774104 0.27522343 -0.10955072 -0.39755303 -0.053386316 0.01514035 -0.40326253 -0.06204553 0.037406195 -0.16477245 -0.32652932 0.04895434 0.20640948 0.027632093 0.42129484 0.35068458 -0.63804424
2013年 0.3470681 0.5764658 0.13246149 -0.75373685 -1.1543449 0.7801249 -0.24885464 0.8194652 -0.23264939 -0.5459749 0.4172985 -0.23556885 0.4440595 1.0367942 -0.2207515 -0.66082627 -0.45203444 0.31428248 0.23799932 -0.604506 -0.15063038 0.29432434 0.25437593 0.25504574 -0.33608675 0.19912274 -0.019544847 0.56968486 -0.32667994 -0.25918365 -0.6693068 -0.046271447 -0.33814874 -0.24898021 0.64409333 0.34709945 -0.44617212 0.58571017 0.19068702 -0.59653795 -0.7493659 -0.65817976 0.25155103 1.1224134 0.3949553 -0.6270398 0.17924394 -0.6103802 0.64636624 1.5502735 -0.28417486 1.5168363 -0.96802604 -0.8811749 0.5803274 -1.0453075 -0.07859925 0.36643514 -0.16902538 -0.71587545 0.5763383 0.59442586 0.23150665 -0.04981429 -0.28241566 0.8526867 -0.1611474 0.31522113 -0.6918389 -0.6080172 0.32980886 -0.17247313 -0.062322557 0.6211776 0.16633487 -0.34479967 1.0175228 -0.6919476 0.039402485 0.17877597 0.06668971 -0.05729084 0.016171524 -0.20784776 0.65233105 -0.66586626 0.031770203 -0.48803252 -0.5512854 -0.5599845 -0.07357313 -0.9035476 -0.2730165 -0.1001885 -1.3254567 -0.9789347 -0.13861746 0.27385762 -0.66302025 0.7057715 0.08482544 -0.5649501 -0.35656825 -1.0240612 -0.23741879 -0.18994786 -0.44445252 0.29167962 -0.49554053 -0.42002296 -0.36827207 0.6886219 -0.074143074 0.24393086 0.20165418 -0.21842107 -1.736285 -0.5503549 -0.53431094 0.30143824 0.7326814 -0.7318692 0.24546827 -0.09316329 -0.40095 -0.16300566 0.30043268 0.5158257 0.5769131 0.3282165 -0.80106235 -0.43901107 0.019109234 1.0454123 -0.2397715 0.9727416 -0.12597555 -0.48909092 0.017457908 0.19159302 0.73665625 -0.32258794 0.07103595 0.5570623 0.28630567 -0.3083911 0.18608044 -0.0043043727 -0.4497752 -0.68389946 -0.4809907 0.1184468 -0.051226333 0.5576624 -1.0110823 0.5593646 0.43738285 0.64548266 1.3993375 -1.1153203 -0.50054675 -0.11115058 -1.2351019 0.0927461 -0.14915544 -0.60205585 -0.70472044 -0.127442 0.003472156 0.15122302 0.80168706 0.27303916 1.038283 0.24859707 -0.11292188 0.41541538 -0.010812522 0.7234792 -0.73792917 -0.20815715 1.2090987 0.5061349 0.74058056 0.40841332 0.9427251 0.23844619 0.032466456 -0.11918209 -0.65398985 1.0524967 -1.115486 0.21681382 0.39116824 0.13393034 0.5440862 -0.21745443 0.06582658 -0.18002775 0.04148268 0.0062724757 0.876173 0.0026441913 -0.24971402 -0.058650214 -0.82812065 -0.39265603 0.6690936 0.19013178 0.09460727 -0.21434811 0.2759158 1.1363539 -0.65626335 -0.18241306 1.2185236 0.44323853 -0.39514384 -0.0030782695 0.25674394 0.4040461 -0.09123043 -0.5006125 -0.37832284 -0.21515357 0.46605107 0.5393823 0.072267815 0.1809219 -0.8610479 -0.36645514 -0.06782489 0.61574835 0.44881958 0.41083434 0.5377156 0.33331895 -0.49461845 0.182186 0.18000898 0.3029415 0.7766171 0.70759004 0.21215124 -0.44476596 -0.008220042 -0.049046896 0.10295273 -0.47270244 -0.03307122 0.26778185 -0.024476836 0.0008500909 0.8560173 -0.1453316 0.8952835 0.6700856
2012年末 0.13507223 -0.0055329967 0.15042353 -0.075550064 -0.5830646 0.08905356 1.1940064 -0.1238325 0.92594737 -0.5519212 0.040566314 -0.06597631 0.38059938 0.4527233 0.63102615 0.15381512 -0.20891237 0.43728238 -0.63174015 0.52701455 0.095312804 0.3927883 -0.38680574 0.15655859 -1.1134003 -0.018710954 0.6191162 -0.07400189 0.5054485 -0.20723549 0.61821 -0.2436331 0.5902913 0.4849425 0.63171756 -0.6528906 0.06302203 0.48249537 0.04039142 0.10236744 -0.62170005 -0.4646841 0.11198615 0.18365446 -0.32094672 -0.55133986 0.021084512 0.30474034 -0.33353108 0.97611886 -0.8420682 -0.30664882 0.40308246 -0.6563745 0.17402074 0.26911327 -0.29868743 0.49800187 0.1819094 -0.814755 1.1743852 -0.35617813 -0.3807913 -0.093334936 -0.42139724 0.6092281 0.074513115 -0.05951714 0.121748164 0.4983008 0.16959532 -0.2850396 0.026178142 0.35938233 -0.679752 -0.085605934 -0.31998423 -1.0656759 0.06795592 -0.19805782 -0.28861162 0.4345931 0.82042146 0.01280988 -0.082139455 -0.33019856 -0.19107787 0.7492175 0.399174 0.041707605 -0.13670902 -0.062259134 -0.03547219 -0.43153572 0.1356106 0.20900747 0.7064979 -0.25205532 0.06597957 1.005317 1.1061306 0.17883877 -0.51371324 0.13554846 0.3652055 -1.3117746 -1.3446722 -0.08082186 0.11201813 -0.27591327 -0.5206767 -0.54166585 0.3546922 -0.6147193 0.095620334 -0.72446644 -0.28667945 -1.3129623 -0.19535737 0.0379043 0.41280094 -0.1741131 0.14844784 -0.24777701 0.113145165 -0.18179815 -0.0016816799 0.53185207 0.9309416 0.45463413 -1.1917044 0.43179294 0.33953243 1.6055223 -0.9710158 0.94447607 -0.38774425 0.17711824 -0.71662444 0.053480938 0.045781486 0.8909612 -0.621103 -0.099077046 0.25912845 0.3268219 -0.7106098 -0.18589951 0.055328585 0.52742594 -0.1192613 0.105180606 -0.0051151165 0.026620232 -0.19845906 0.32833487 0.16585831 0.007744064 0.5214568 -0.072668135 -0.45882836 -0.20366842 -0.46737406 0.0472727 -0.18038353 0.04899871 0.017295059 -0.19288608 0.012845381 0.5880386 0.10317392 0.43690053 -0.22167106 0.47645044 0.5455702 -0.5633867 -0.20791368 0.16333988 -1.3081295 -0.43789768 0.36894166 0.2039212 -0.55785304 -0.020039527 -1.1138602 0.038682763 0.72567075 0.14126293 -0.5964073 -0.14014263 -0.89300096 0.51904815 0.030461153 0.37242854 0.8588102 0.19649763 0.2453972 -0.23229942 -0.1747828 0.9915503 0.03539244 -0.47165978 -0.5980643 -0.034982283 -0.52499145 0.14750972 -0.72070116 0.35568243 0.7021793 -0.18659489 -0.005269919 0.17393586 -0.35524973 -0.072710134 0.61127 0.74544734 -0.8655332 0.318119 -0.5809528 0.5609899 0.27808246 -0.651262 -0.2630922 0.5445039 -0.25176573 0.2594132 0.0038548629 0.38011822 -0.028514596 0.49599522 -0.01602116 0.74143064 -0.02854168 0.17398536 0.28551835 -0.1519316 -0.4531255 0.10363665 -0.2517852 -0.19971615 0.33125675 0.18602003 -0.56322974 -0.80934006 -0.30368564 0.22104841 -0.5949603 -0.76697403 0.2577437 -0.6409903 0.0069151325 -0.66402656 0.69713277 0.32429817 1.0516196 -0.57926863
余额 0.1569877 -0.14252639 0.2197815 -0.07669442 -0.13162392 0.19294147 1.2530131 -0.35466003 0.8250683 -0.20121369 -0.23243345 0.049702432 0.3206208 0.07478844 0.74381363 -0.10023114 -0.14119343 0.2919087 -1.013267 1.0040339 0.16538154 0.43555146 -0.29901013 0.34810308 -0.9955267 -0.0196951 0.91361845 -0.50674 0.8940978 -0.2429702 0.55694073 -0.08703649 1.0442722 0.83471626 0.29993117 -0.5305239 0.4815614 0.1644349 -0.22007026 0.33937895 -0.56755376 -0.2822001 0.24064195 -0.32179752 -0.24835862 -0.5728794 -0.2883839 0.55753005 -0.21326801 0.7138755 -0.9277582 -1.029131 0.66995037 -0.5407958 0.09687747 0.4189024 -0.33437487 0.44936755 0.3865017 -0.9622734 1.1531767 -0.54138285 -0.64595705 0.18011832 -0.29404512 0.45422697 0.26162523 -0.3307464 0.43403268 0.73203766 -0.14649329 -0.4261061 -0.29774353 0.0765698 -0.71817446 -0.1797175 -0.7287543 -0.55109525 0.019548465 -0.29231215 -0.3655436 0.80316496 1.2043606 -0.33233216 -0.43989465 -0.26830167 -0.39024535 0.90867996 0.5505021 0.31828678 -0.029581165 0.38748536 0.030420875 -0.5550219 0.6174448 0.6093294 1.2303517 -0.5517335 0.15768413 0.8271534 0.9824148 0.3137419 -0.40990132 0.5614807 0.17874469 -0.9492998 -1.1706778 -0.16450106 0.3704055 -0.15036285 -0.40527478 -0.8313474 0.28581867 -0.7893653 0.20118736 -0.67571855 0.3338479 -0.8350989 -0.24662517 -0.10600717 0.07151405 0.24562263 0.33006734 -0.24439365 0.38543004 0.17611185 -0.045518063 0.45513505 0.5802082 -0.12408685 -1.1013426 0.13552935 0.29394707 0.9385881 -0.82127935 0.60555816 -0.14349563 0.0838863 -0.8265765 -0.06861761 -0.13226509 0.811043 -0.40596837 -0.14223216 0.09991259 0.4895574 -0.8723471 -0.14509916 0.83500046 1.0728784 0.08139785 -0.018995205 -0.10598394 -0.3133409 -0.029515302 0.2901407 0.16757782 -0.4062157 0.50570744 0.42254424 -0.12242571 -0.039501727 -0.16965558 0.09659666 -0.5734101 0.26041618 0.42981926 -0.46468034 -0.10051906 0.43889084 -0.01491735 0.596205 -0.783413 0.31457174 0.9258035 -0.5639052 -0.090665355 0.19372022 -1.1324892 -0.41922843 -0.36262167 -0.032024343 -0.9606107 -0.008900604 -1.6171365 0.03508582 0.77181786 0.40540552 -0.22733887 -0.40157947 -0.6187601 0.36629635 -0.009980088 0.3833079 0.5921022 0.182245 -0.14599948 -0.13358296 0.0998491 1.0305692 -0.3234374 -0.25741163 -0.6870574 0.08526605 -0.045699842 0.5646799 -1.0638533 0.18305498 0.66875726 -0.22950007 -0.1097209 -0.08235969 -0.17009637 -0.14944342 0.38513333 0.3133824 -0.8118629 0.5699108 -0.65961736 0.43853074 0.1752275 -0.49816 0.06529659 0.90647006 -0.2693176 0.10816784 0.008664148 0.36794144 0.16606678 0.16966823 0.069439225 0.5725802 -0.10372288 0.17816344 0.020228947 -0.3739108 -0.14043388 -0.04907206 -0.3683083 -0.14996974 -0.12145477 -0.27157137 -0.65979534 -0.5416697 -0.13899058 0.29059786 -0.5892093 -0.6402822 0.49313042 -0.49325225 0.09823275 -0.57370764 0.26482934 0.42009604 0.09515724 -0.9386216
2012年度 0.27303922 -0.32572842 0.16656366 0.52701205 0.9334246 0.14179935 -0.7443379 -0.3908477 -0.63266486 0.5353096 0.16470109 0.07207704 -1.1444702 -0.76564014 0.94010806 -0.39573073 1.1989028 0.43786037 -0.78114915 0.06874619 0.05118727 0.30529475 -1.4869796 -0.39827746 0.6428156 -0.8300259 1.0743507 0.10520729 -0.4662564 -1.4981385 -0.18978225 -0.4277487 -0.78130996 -0.05691907 -0.08039566 -0.98128295 -0.627317 -0.43690875 0.63534296 -0.60552883 0.09380982 -0.26458094 -0.005188605 0.6272152 0.70721084 -0.0033870738 0.31583595 -0.58788264 0.39515185 0.15873517 -0.43700048 0.39396626 -0.014301353 0.18959446 0.3526489 -0.2476688 -0.31453273 0.58407617 0.48216233 -0.9458917 -0.05569832 0.30279794 -0.5683887 1.3526871 -0.26302767 0.82620645 -0.37062606 0.12534241 0.05153312 0.045333274 -0.14069116 -0.2715127 -0.014606362 0.6993952 0.09676387 -0.80727047 0.0817879 0.3321725 -0.84139574 0.0903439 0.025854718 0.27884912 0.4353309 -0.5974256 -0.5415675 -0.3304631 -0.36530957 -0.27295148 0.39719808 -0.3546094 -0.24888988 -0.026059087 -1.0399112 -0.65567297 -0.3487742 0.44186577 0.19425401 0.35000166 -0.7576698 -0.3294195 -0.1398597 0.005857165 0.5233678 -0.18380433 -0.70212406 -0.09962693 -0.5021263 0.47398168 -0.5393363 -0.18663359 -1.0508069 -0.5526857 0.4976016 -0.3494046 0.14349665 0.16444874 0.4399225 -0.5439609 0.13470344 -0.40610242 0.2322448 -0.12269925 0.4569483 -0.0394385 0.7925564 0.9627228 -0.07668087 1.0461122 0.09664842 0.8916151 -0.34149846 -0.48697862 -0.77241486 -0.9971741 0.3423803 0.22844115 0.046235733 0.3857053 -0.31095827 -0.6431325 0.023412593 -1.1858145 -0.35559887 0.23401684 -0.95900613 -0.27595225 -1.2216604 -0.8186666 0.34129283 -0.35823122 -0.49708936 -0.72442937 0.24228597 0.007919375 -0.5755251 0.49941412 0.6555119 -0.28698462 0.48420602 -0.48423147 0.35973072 -0.28740057 -0.5841389 0.49738076 -0.63698786 -0.11660206 0.04189187 -0.7953952 -0.04954316 -0.5692953 0.2892555 0.44080174 -0.023026422 0.35496798 0.6460288 0.4341351 0.8431256 0.0594334 -0.3334548 0.060564704 -0.6254757 0.46056437 0.2365945 0.08333351 1.1101356 0.24009083 -1.2317605 0.4670058 -0.5687209 0.5984854 -0.42654002 0.009214385 0.31731653 -0.32237214 0.3091365 -0.98083025 0.08348603 0.7776515 0.05413521 0.15515435 -0.38753045 0.29639375 -0.83439094 -0.49889612 -0.53720456 0.43456566 0.7621276 -0.31960613 0.14069033 -0.16498813 -0.35192874 0.023802955 0.41205022 -0.36275786 0.40361091 -0.3035855 0.19783479 0.8547618 -0.11032136 -0.41136163 -0.02057523 -1.1730635 0.37809038 -0.24364436 0.7758738 -0.039132576 0.10212526 -0.37370947 -0.12792678 -0.8879485 -0.20300263 -0.47580773 0.21969053 -0.17802452 0.3731475 0.5241308 0.30935732 -0.0303901 0.36261684 0.0036622705 0.35045594 -0.7513304 0.3995391 0.40737212 0.14952375 -0.57143766 0.46263796 0.07702585 0.09267525 0.9052443 0.14989698 0.4905349 -0.006785352 -0.26747295 0.50278234 -0.23158106
收入 0.121977754 0.09014091 -0.5845969 0.2595287 0.048107225 0.5654983 -0.95440114 0.7617924 -1.0993618 0.12447506 -0.08593814 0.22324398 -0.3307543 0.24471465 -0.541529 -0.7265249 -0.27114424 0.12438962 0.36038497 -0.44823092 -0.16995321 0.3043363 0.20417081 -0.04865545 0.4866853 -0.00052061584 -0.63627946 0.15239371 -0.1212363 0.41498038 -0.8153306 0.5531321 -0.2620236 -0.37713686 -0.1360698 0.15167311 0.16212116 -0.07762014 -0.31986338 0.124028295 0.1492989 0.21871988 -0.012360885 0.4459966 0.37671655 0.05954098 0.2123163 -0.6322848 0.43894777 0.11170326 0.52371025 0.6560362 -0.7165681 -0.10260434 0.103481226 -0.3527113 0.22337514 0.2238222 -0.05254848 0.10630686 -0.616075 0.12365002 -0.03510969 0.48787025 -0.20534924 -0.06780355 -0.19703431 0.15878254 -0.18185546 -0.41547164 0.10025972 0.12887044 0.23181681 0.57634 0.63212913 -0.50863093 0.4840051 0.19285041 -0.3650874 0.04087373 0.36389422 -0.26168674 -0.48095113 -0.01790978 -0.030299045 0.087763496 0.10699475 -0.6407244 0.19993076 -0.26248273 -0.40992892 -0.19677977 -0.42689288 0.16478112 -0.48944253 -0.29703784 -0.60764223 0.56639993 -0.32443193 -0.32966644 -0.210977 -0.10465322 0.40957367 -0.5495783 -0.3756434 0.4770466 0.47933242 0.5463159 -0.3525665 0.25450763 0.036790244 0.29965597 -0.054456826 0.26912764 -0.2748429 0.15850332 -0.28850543 -0.24609883 0.20776072 -0.04008086 0.19485256 -0.21504156 0.020545319 -0.022802811 -0.39185423 0.16957922 0.10791029 0.07787871 0.028064797 0.6803088 0.44086784 -0.43821266 -0.37150636 -0.4442286 0.3211298 0.13083808 0.03230414 0.12454848 0.2172082 -0.009865641 0.16218074 -0.97219753 0.25492036 0.5040387 -0.5084092 -0.6089757 -0.20641167 -0.20295958 -0.55636674 -1.0383524 -0.028853338 -0.21074301 0.07519503 0.07205734 -0.3899337 -0.17016096 0.009436838 0.35474885 -0.14777091 -0.51235354 -0.004704445 -0.33421856 -0.52802294 0.34705967 -0.120602794 -0.20067012 -0.24288121 0.15976162 -0.006496664 -0.6403745 0.25982842 -0.26040843 0.83423483 -0.011679039 -0.6473923 0.28972664 0.22778456 0.16660802 0.39621907 0.17772453 0.090064816 0.390144 0.5681574 0.1573234 1.623299 0.11757057 -0.6533063 0.09139258 -0.34985512 0.62500685 -0.049490932 0.039251562 0.4406096 0.016133305 -0.08408023 -0.5379187 0.21851797 0.64695233 0.035251115 -0.6759429 0.25694934 0.47515225 0.06803467 -0.26721436 -0.6152809 -0.14019594 1.0312643 -0.42814997 -0.11420572 0.28139463 0.07113667 0.025070999 -0.08962102 0.034855977 -0.008978988 -0.0057630115 0.31260264 0.09432626 0.14265043 -0.36694604 -0.04263946 -0.3368681 0.1814634 -0.77654034 0.43606552 0.25945467 0.13860466 -0.3009827 -0.7083457 -0.38412875 0.10721549 -0.3411815 0.076735735 -0.5913718 -0.14478333 0.42709267 0.21308163 -0.29310498 0.71330917 0.279512 0.38845673 -0.2608355 -0.12835556 0.365074 0.18568166 -0.67918545 0.45137024 0.5280696 -0.009953108 0.4813145 0.028649736 0.525573 -0.1426377 -0.19402456 -0.3222725 -0.011051247
